%YAML:1.0
---
myHogDector: !!opencv-object-detector-hog
   winSize: [ 64, 128 ]
   blockSize: [ 16, 16 ]
   blockStride: [ 8, 8 ]
   cellSize: [ 8, 8 ]
   nbins: 9
   derivAperture: 1
   winSigma: 4.
   histogramNormType: 0
   L2HysThreshold: 2.0000000000000001e-01
   gammaCorrection: 1
   nlevels: 64
   signedGradient: 0
   SVMDetector: [ 1.14432629e-02, 7.57852290e-03, 5.58702182e-03,
       9.26268101e-03, 1.13397380e-02, 3.28276828e-02, -7.16843689e-03,
       1.07702501e-02, 1.33069512e-02, -9.75740666e-04, -1.26518751e-03,
       -1.20803772e-03, -1.05357766e-02, -1.57533623e-02,
       -1.86827627e-03, 4.50821687e-03, 5.04956022e-03, 5.93152549e-03,
       -9.70013265e-04, -1.18761528e-02, 3.34008853e-03, 1.01074548e-02,
       -8.24620761e-03, 1.35286497e-02, -9.25591961e-03, -7.59819848e-03,
       -7.97872711e-03, -2.13390240e-03, -1.46795893e-02,
       -8.41816328e-03, 2.41628266e-03, -2.74098176e-03, -4.51143784e-03,
       -5.18782437e-03, -2.11148039e-02, -1.41913006e-02,
       -1.23475669e-02, 1.35752978e-03, 5.79779688e-03, 6.04722975e-03,
       9.77997947e-03, -8.39665881e-04, -3.20177176e-03, 6.02548523e-03,
       6.79484243e-03, -1.23156291e-02, 3.55296093e-03, -9.31005285e-04,
       -6.61884295e-03, 7.12699024e-03, -2.09708279e-03, -1.12920338e-02,
       -1.92382198e-04, -1.51839359e-02, 1.13787213e-02, 5.70065095e-05,
       -7.96574447e-03, 4.12126072e-03, -3.81847611e-03, -2.95894011e-03,
       -1.25366542e-02, -9.71003342e-03, -3.71972169e-03, 1.08402921e-02,
       -2.84543610e-03, 3.07697477e-03, 5.75546362e-03, -3.73195810e-03,
       1.82978380e-02, -1.13204373e-02, -3.91316507e-03, 2.92852346e-04,
       3.69587471e-03, -4.32248320e-03, -5.56091825e-03, -1.86540689e-02,
       1.35394989e-03, -1.13101099e-02, -6.40400406e-03, 1.99659988e-02,
       1.53240459e-02, -1.76738445e-02, 3.23388306e-03, 2.66459119e-03,
       -1.35581028e-02, -8.36004596e-03, -2.07668496e-03, 2.22208947e-02,
       2.14046240e-02, 1.49462242e-02, 7.29090068e-03, -5.40002948e-03,
       -1.50523556e-05, 2.97168945e-03, -1.65577400e-02, 4.84549534e-03,
       -6.44499029e-04, 5.21390606e-03, 5.38887922e-03, -1.92576367e-02,
       -8.47626477e-03, 3.00301169e-03, -2.02149339e-03, -9.54622682e-03,
       -1.84786099e-03, -9.29683261e-03, -1.25976587e-02,
       -1.94513879e-03, -2.73723342e-02, -1.71955570e-03, 1.77215356e-02,
       -1.24079688e-02, 1.46785972e-03, 3.66994808e-03, -5.71181532e-03,
       6.12850720e-03, -5.29653102e-04, -7.48378597e-03, 2.74331018e-04,
       -2.02771984e-02, -3.17917741e-03, 1.44992943e-03, -6.50098128e-03,
       -4.09645122e-03, -1.45792663e-02, -1.86653044e-02,
       -6.76271133e-03, 5.64732729e-03, -1.10954288e-02, 1.00156903e-04,
       -6.22568303e-04, 8.06946866e-03, -1.99973118e-02, 4.58199345e-03,
       9.98295471e-03, -1.06639473e-03, -9.03671701e-03, 2.10010819e-03,
       1.08750118e-02, 3.88738909e-03, 5.72551647e-03, -1.72959901e-02,
       -3.38208862e-04, -3.15506896e-03, 6.11093407e-03, 1.50881894e-02,
       -1.80241577e-02, -6.17852900e-03, 3.68462433e-03, -3.19461687e-03,
       -7.84092955e-03, -1.84398722e-02, -1.79471215e-04,
       -3.54651641e-03, 1.31697394e-02, -9.48041864e-03, -4.65938775e-03,
       2.00473727e-03, -4.69931960e-03, -2.29640189e-03, -1.36011606e-02,
       1.09446272e-02, -4.27947752e-03, -8.10957979e-03, 8.12638784e-04,
       2.27178112e-02, 1.13159092e-02, 1.28573980e-02, 4.11260640e-03,
       1.88446548e-02, 2.23371360e-04, -1.06633781e-02, -3.11606971e-04,
       7.70357670e-04, 5.24802366e-04, 2.52320687e-03, 6.49123162e-04,
       4.27394826e-03, 8.76203645e-03, -5.06840879e-03, -1.05807306e-02,
       6.68596418e-04, -7.03269104e-03, 1.11306757e-02, 1.78961351e-03,
       5.84503356e-03, -5.59816556e-03, 3.10389861e-03, 2.20981035e-02,
       8.33638292e-03, 3.79603327e-04, 5.59697486e-03, 6.98234839e-03,
       3.86297796e-03, 6.08473318e-03, -1.54319890e-02, 4.86948615e-04,
       1.03450883e-02, -2.04144660e-02, 2.81274668e-03, 1.09167797e-02,
       -2.19218386e-03, 1.75968488e-03, -4.25052736e-03, -2.24176538e-03,
       -4.77269432e-03, -7.16552231e-03, -4.39622207e-03, 7.96488021e-03,
       1.11476248e-02, -1.00859255e-03, -1.96296931e-03, -4.46401630e-03,
       -4.87430443e-05, -5.96688176e-03, -1.92843005e-03, 2.07021972e-03,
       5.28084952e-03, 9.18727182e-03, -2.26513832e-03, -1.22442376e-02,
       -7.74005800e-03, 4.55007330e-03, 1.12284282e-02, -5.66828763e-03,
       -1.38599835e-02, -8.24181270e-03, -2.50426121e-03,
       -1.79862343e-02, -1.14604477e-02, -1.15576880e-02, 1.54589163e-02,
       -1.24093634e-03, -2.04242580e-02, 8.80665239e-03, -8.94480944e-03,
       -1.40589674e-03, -4.42511588e-03, -9.91856866e-03, 5.10389218e-03,
       1.89876799e-02, -1.26637090e-02, -1.93316508e-02, 3.92835448e-03,
       -1.34021733e-02, 1.10979041e-03, -2.26734318e-02, -1.67200211e-04,
       -1.59903280e-02, 1.61334220e-02, -6.17333781e-03, -6.17493410e-03,
       -2.69074598e-03, 2.86697294e-03, -8.49433709e-03, -5.39824693e-03,
       -4.59469901e-03, 8.75053811e-04, 1.07999239e-02, -5.18194679e-03,
       1.79467741e-02, -5.09657012e-03, 1.81670673e-02, -4.09434410e-03,
       -1.00588854e-02, 8.27099476e-03, -2.47850898e-03, -2.07694154e-03,
       6.53642416e-03, -6.86991448e-03, 9.98861715e-03, 6.45630201e-03,
       6.85435138e-04, -8.89127329e-03, 8.67445581e-03, 2.88099982e-03,
       7.41839502e-03, -2.11380329e-03, 4.54958575e-03, 2.50394980e-04,
       2.03683227e-03, 6.26053475e-03, -1.66993646e-03, -2.13722046e-03,
       -1.06798736e-02, -1.31852292e-02, 6.88179675e-03, 2.80757132e-03,
       1.03243235e-02, 2.58027520e-02, 1.48801378e-03, -6.82136090e-03,
       1.63905639e-02, 7.97601324e-03, -1.12928695e-03, 1.69974361e-02,
       -6.22969447e-03, -7.41918292e-03, 1.04224430e-02, -6.54851226e-03,
       -1.53528701e-04, -4.08417312e-03, 5.84709505e-03, -6.89485297e-03,
       1.74133784e-05, -1.05097715e-04, 1.37621658e-02, 1.14814425e-02,
       5.03180502e-03, 3.57050775e-03, -5.29001933e-03, 2.64760875e-03,
       -6.76781579e-04, 5.08407783e-03, 3.09232320e-03, -1.45114595e-02,
       -4.74296091e-03, 9.75058321e-03, 2.46556103e-03, -4.52193141e-04,
       1.02922600e-02, 1.22108264e-03, -4.58319578e-03, -4.14942484e-03,
       -8.38080235e-03, 7.67084118e-03, 1.19419508e-02, -1.10381818e-03,
       2.87864008e-03, -2.45388388e-03, -1.02317939e-02, 2.19851732e-03,
       3.91240185e-03, 4.72105574e-03, 5.68823889e-03, 5.83782000e-03,
       2.79117306e-03, 9.72632784e-03, -1.59302820e-02, 1.88054435e-03,
       -5.61109697e-03, -3.92572070e-03, -1.97437909e-02, 2.78263702e-03,
       4.61823633e-03, 8.54493584e-03, -4.92257997e-04, 5.12730656e-03,
       4.94868553e-04, -1.16964625e-02, -3.54930758e-03, -7.18759047e-03,
       7.81118521e-04, 4.99812746e-03, 1.75309572e-02, 2.48696934e-02,
       8.95913225e-03, 9.26962867e-03, -1.15681039e-02, 6.87385118e-03,
       6.50637364e-03, -1.28107555e-02, 3.67937749e-03, -2.50401226e-05,
       3.98092950e-03, -1.57822836e-02, -8.84238817e-03, 1.19990353e-02,
       2.26108432e-02, -1.12769995e-02, -6.51191128e-03, 1.80314463e-02,
       -2.51450809e-03, 9.12039820e-03, -3.84782185e-03, -1.82291158e-02,
       7.10087968e-03, 1.06509812e-02, 5.75908320e-03, -1.76015764e-03,
       9.22941789e-03, 6.86232839e-03, -5.41195413e-03, -6.87047187e-03,
       3.74880922e-03, -4.97996947e-03, 8.58071540e-03, 9.56911687e-03,
       -9.41408519e-03, -2.13023648e-03, 8.42656754e-03, -1.77977439e-02,
       -5.32392319e-03, -1.58241158e-03, 2.76341398e-05, -1.55956682e-03,
       -1.14818476e-02, -3.68595286e-03, -6.52529357e-04,
       -5.53453574e-03, 2.17757802e-02, -2.42733792e-03, -1.24161725e-03,
       2.56819325e-03, -1.24755669e-02, 6.04424800e-04, 8.63454421e-04,
       -1.29527906e-02, -9.03644878e-03, 1.64711419e-02, 8.18101037e-03,
       4.29338496e-03, 1.35639682e-02, -9.71265417e-03, -6.18508179e-03,
       -4.22562612e-03, -9.55861807e-03, 1.52267525e-02, 5.04197367e-03,
       -1.06929976e-03, 6.67894306e-03, 1.09536191e-02, -1.61700081e-02,
       -2.84089986e-03, 2.00778004e-02, -1.12987822e-02, -8.13375972e-03,
       -7.24082999e-03, -1.11196982e-02, -3.22318811e-04, 1.38717126e-02,
       6.26513036e-03, -7.07875937e-03, 9.26294550e-03, -2.21477654e-02,
       1.59450322e-02, -7.88456108e-03, 1.32785020e-02, -8.26501846e-03,
       1.57620164e-03, -7.12772366e-03, -1.37489140e-02, 2.34115752e-03,
       -1.54038528e-02, 5.74247912e-03, -1.74739212e-02, 5.67255542e-03,
       -6.90636749e-04, 1.41580133e-02, -5.57053415e-03, 1.61520708e-02,
       7.20105134e-03, -8.90191179e-03, -5.76226739e-04, -8.36087111e-03,
       -1.59065949e-03, -3.64797027e-03, 6.92071905e-03, -4.02709609e-03,
       5.49340015e-03, -6.59408234e-03, -1.99900079e-03, -3.48076923e-03,
       -1.37704965e-02, -2.02685059e-03, -1.38961698e-03,
       -6.59038313e-03, 3.63547541e-03, 9.43222549e-03, 2.18940377e-02,
       -5.92855387e-04, 1.00206095e-03, -1.05595505e-02, 1.99795398e-03,
       -5.67670818e-03, 1.88283361e-02, 6.02200720e-03, 7.78571144e-03,
       1.43037746e-02, 1.13750091e-02, -1.54972104e-02, -7.69699400e-04,
       5.36605110e-03, -2.06536800e-02, -1.12154509e-03, 1.38394777e-02,
       9.18631628e-03, 7.32913206e-04, -3.78579833e-03, 1.50135916e-03,
       -1.04964012e-03, 7.81157170e-04, -6.76905410e-03, -6.29500346e-03,
       7.57259643e-03, -5.68671105e-03, -2.96153896e-03, -1.10533077e-03,
       -2.43594237e-02, -1.26188365e-03, -5.32179978e-03, 1.06437644e-02,
       -1.01260445e-03, -2.58404005e-04, 9.12978873e-03, 1.03857508e-02,
       -6.66092802e-03, 6.41806098e-03, 2.33633853e-02, 5.81363356e-03,
       -1.07385255e-02, 1.31102735e-02, -4.19324078e-03, -1.19753620e-02,
       1.34238717e-03, -3.19344662e-02, -7.15907011e-03, 7.19139399e-03,
       9.97122470e-03, -1.27218887e-02, 2.02905033e-02, 9.03733820e-03,
       6.50343345e-03, 3.00099142e-03, -9.56840068e-03, -2.70662084e-03,
       -6.41823499e-05, 4.07086685e-03, -6.28005434e-03, 2.87247659e-03,
       9.32068191e-03, -1.37085223e-03, 7.05739576e-03, -5.44261979e-03,
       9.15702432e-03, 3.54766380e-03, 5.81496954e-03, -2.28821728e-02,
       4.82074590e-03, 6.65959436e-03, 4.44708345e-03, 4.79715830e-03,
       1.76705308e-02, 6.68060081e-03, 3.99954570e-03, 5.17033506e-03,
       -3.52573139e-03, -8.76758341e-03, 4.55917837e-03, 1.76798683e-02,
       1.46873936e-03, 4.98129847e-03, -1.26766060e-02, 1.31970942e-02,
       -6.40979409e-03, -8.06215627e-04, 5.59479184e-03, 5.05864248e-03,
       5.33064187e-04, -1.94911268e-02, 2.21596984e-03, -1.15409717e-02,
       -6.33316580e-04, -7.02976808e-03, 2.25051977e-02, -8.52262322e-03,
       1.08406609e-02, 4.61868709e-03, -3.34762898e-03, 8.02813377e-03,
       -2.96846917e-03, -1.29003450e-02, 6.13486208e-03, 2.68780481e-04,
       2.45491834e-03, 7.58019043e-03, 1.28871500e-02, 7.46711623e-04,
       -5.01862913e-03, -1.47359148e-02, -8.82142503e-03,
       -4.73667728e-03, 3.35328025e-03, 1.48423575e-03, 6.74212642e-04,
       -6.64245104e-03, -1.89631945e-03, 1.01904655e-02, -1.06219854e-02,
       9.91615839e-03, 1.12343263e-02, 1.05525937e-03, 5.97052858e-04,
       8.15585628e-03, -4.44251252e-03, 1.63361593e-03, 1.03417609e-04,
       1.71319637e-02, -5.22693153e-03, 1.27186263e-02, -5.12403203e-03,
       -2.42890813e-03, -8.62647127e-03, -1.33860698e-02, 6.32373663e-03,
       3.18062841e-03, -9.73173417e-03, -4.23288904e-03, -4.92465077e-03,
       7.38766743e-03, 3.33586521e-03, -2.71861139e-03, -9.16383415e-03,
       5.23059350e-03, 8.15043412e-03, -1.34112046e-03, 5.72336931e-03,
       6.73990371e-03, 2.15892075e-03, 4.55435785e-03, -9.16428585e-03,
       -3.86951910e-03, 2.87975138e-03, -6.74038706e-03, 3.95530136e-03,
       6.09884225e-03, 5.58686908e-03, -3.08216637e-04, -7.69722974e-03,
       -1.83616187e-02, -6.52180053e-04, 3.99407902e-04, -2.13163495e-02,
       -7.67022232e-03, -2.20887735e-03, -2.41367216e-03, 1.05283475e-02,
       -9.35680885e-03, 1.16311973e-02, -9.10308864e-03, 1.36549771e-02,
       -8.18231609e-03, 1.30952019e-02, -1.20908739e-02, -5.15146367e-03,
       2.10877671e-03, -1.10174401e-03, 2.16345731e-02, 4.46594320e-03,
       -4.87200031e-03, -9.84320603e-03, 3.18522658e-03, 9.28165764e-03,
       -1.34157445e-02, -3.32744140e-03, 1.02634914e-02, 8.88561271e-03,
       7.85498880e-03, 5.46042249e-03, 4.27291449e-03, -3.90274939e-03,
       -4.50734189e-03, -1.67241227e-02, -9.98317637e-03, 5.07520977e-03,
       -5.60246315e-03, -1.02367792e-02, 1.10704144e-02, -8.66817124e-03,
       9.37829912e-03, 9.23162559e-04, -1.03299348e-02, 1.79091259e-03,
       3.26787727e-03, 8.20012391e-03, 7.00107077e-03, 2.77497037e-03,
       6.20726263e-03, -1.15581006e-02, -6.22427440e-04, -9.74117965e-03,
       8.87532532e-03, 1.21439826e-02, 5.48800034e-03, 1.63162313e-02,
       9.90574621e-03, 9.57188942e-03, 4.99563804e-03, 1.06863622e-02,
       1.40528828e-02, -3.52560612e-03, 1.77236218e-02, -6.33361796e-03,
       1.46776075e-02, -2.86257523e-03, 3.82224051e-03, -4.97627119e-03,
       5.47633413e-03, -6.33879751e-03, -4.36996983e-04, 1.41472220e-02,
       -8.32066871e-03, -1.41560251e-03, -8.81901197e-03,
       -7.73391174e-03, -1.23647023e-02, 2.16161311e-02, 6.70950022e-03,
       -7.57071073e-04, 5.59440302e-03, 5.48737776e-03, -3.48025816e-03,
       -1.95390005e-02, -3.49757890e-03, -1.06631983e-02, 1.21800338e-04,
       3.30855930e-03, 3.02721979e-03, 8.47654790e-03, -5.16348286e-03,
       1.26282694e-02, 1.07496092e-02, 1.53621528e-02, -2.57099280e-03,
       -1.92590011e-03, 1.05549265e-02, -1.27521548e-02, -1.01062506e-02,
       -1.58837833e-03, -7.37369806e-03, 2.22874768e-02, 3.03670950e-03,
       -2.58850143e-03, -7.88960978e-03, 1.01222172e-02, 8.07523634e-03,
       4.80509643e-03, -1.21193789e-02, 1.20665850e-02, 2.26498954e-03,
       9.35096107e-03, 8.79583228e-03, -8.32110271e-03, 2.88223824e-03,
       -4.46973322e-03, -5.48775680e-03, -4.17170255e-03,
       -5.62092569e-03, 1.25860479e-02, 2.46694428e-03, -1.04796356e-02,
       4.26545879e-03, -5.64540876e-03, -6.57115970e-03, 5.16278949e-03,
       2.73752795e-03, -2.04405325e-04, 5.52615197e-03, 1.16899388e-03,
       -5.37615176e-03, 5.74988197e-04, 1.56850945e-02, 1.40749225e-02,
       1.04655670e-02, -8.42442643e-03, 2.01048981e-03, -9.54181608e-03,
       1.39149651e-02, 8.08558019e-04, 5.19595714e-03, -1.71190267e-03,
       3.87981674e-03, -2.89883022e-03, -3.14732618e-03, 1.52215194e-02,
       6.08682912e-03, -1.38191525e-02, -1.50594218e-02, 1.14491368e-02,
       5.62726753e-03, -1.27190864e-03, 1.26349581e-02, 5.87291457e-03,
       2.73660035e-03, -1.56744327e-02, 4.05499188e-04, -1.28320465e-02,
       -7.58959819e-03, 2.23167650e-02, 6.23352826e-04, 3.40450625e-03,
       1.92424711e-02, -1.85761154e-02, 2.80880625e-03, 1.32577363e-02,
       1.19221481e-02, 5.59483655e-03, 1.19171776e-02, -1.45711545e-02,
       -2.90665100e-03, -7.51373242e-04, -3.17347748e-03,
       -3.30968015e-03, -2.98109301e-03, -2.02934281e-03,
       -6.07928634e-03, 5.78513322e-03, -9.16231517e-03, 2.04016571e-03,
       8.61986261e-03, 8.93932825e-04, -3.36461631e-03, -7.39384210e-03,
       -9.38697834e-04, -1.57141071e-02, 1.21661965e-02, -9.93270054e-03,
       -1.22788223e-02, 5.97616704e-03, 8.95154104e-03, -6.14858326e-03,
       -1.00631604e-03, 5.67120314e-03, 1.60454412e-03, 1.35942614e-02,
       -5.36438590e-03, -2.01425329e-02, 9.25460923e-03, 3.85645684e-03,
       1.16631314e-02, 4.39888751e-03, -7.16151157e-03, -1.13093425e-02,
       -8.85745883e-03, -1.23697761e-02, -5.57111984e-04, 6.81637134e-03,
       -1.06652593e-02, 1.30716001e-03, 2.06249952e-03, -1.49896527e-02,
       4.84163320e-05, 6.39619911e-03, -1.04506807e-02, -6.96990825e-03,
       5.50081022e-03, 7.53354002e-03, -9.67249647e-03, -7.00451899e-04,
       -1.84571592e-03, 1.29466446e-03, 7.40970066e-03, -8.83895252e-03,
       -3.72746820e-03, -7.98618421e-03, -2.27371883e-03, 3.54348333e-03,
       -1.78790872e-03, -1.59648844e-04, -3.74059402e-03, 8.20863433e-03,
       -4.64126840e-03, -2.76650116e-03, -3.79082491e-03, 6.96747389e-04,
       -5.21550048e-03, 9.68773908e-04, -2.86355359e-03, -6.36506011e-04,
       1.06082065e-02, 1.13553191e-02, -2.24935729e-03, 7.18073407e-03,
       4.98352898e-03, -1.06780687e-02, -1.45170894e-02, -5.69566013e-03,
       -1.71341728e-02, -3.95723572e-03, -4.85127885e-03, 7.30301952e-03,
       7.92800158e-04, 7.15371734e-03, 1.72290262e-02, 1.42356288e-02,
       -4.05046914e-04, 8.69974308e-03, 8.60419311e-03, 1.48046063e-02,
       -1.77089847e-03, -4.55552991e-03, -5.89955691e-03, 1.24320679e-03,
       1.44109828e-03, -1.13462107e-02, 1.26815895e-02, -1.03361253e-02,
       -4.88314219e-03, -2.91850721e-03, 1.44395875e-02, 9.05060559e-04,
       -7.39481254e-03, -9.25847702e-03, -1.08678360e-02,
       -2.00069882e-02, 2.74950848e-03, -3.67072118e-07, 1.22489799e-02,
       -4.16885596e-03, 1.67230293e-02, -1.44142313e-02, -1.60246389e-03,
       5.36034629e-03, -2.14404948e-02, -1.71182938e-02, 1.36538232e-02,
       8.41680635e-03, -1.58840045e-02, -6.63054129e-03, 3.34241474e-03,
       -3.46894586e-03, 1.48506649e-02, 5.18221594e-03, -4.35487740e-03,
       1.93267129e-03, 6.84750406e-03, 1.57338623e-02, -6.98867720e-03,
       1.81132797e-02, 7.58580072e-03, 5.01838466e-03, 6.15615025e-03,
       -3.76455719e-03, 1.67828538e-02, -1.80651108e-03, -1.46084465e-03,
       -5.35876490e-04, 1.89905183e-03, -9.77723766e-03, 4.20055352e-03,
       -1.40447984e-03, 2.34994479e-03, 1.39507391e-02, 6.57457160e-03,
       -5.65666007e-03, -2.25548842e-03, 1.34691885e-02, -1.43189458e-02,
       4.82131913e-03, -1.30852070e-02, -6.66205818e-03, -1.15754837e-02,
       8.23170785e-03, 3.71783553e-03, 1.00242328e-02, 1.24852201e-02,
       -8.90734792e-03, 5.77511499e-03, 5.66840079e-03, -4.04296815e-03,
       -1.48748858e-02, -4.93151927e-03, 5.52168465e-04, -8.61212891e-03,
       8.23379215e-03, 2.07271869e-03, 3.80352745e-03, -2.84458557e-03,
       -9.44705401e-03, -8.10514856e-03, -1.29199028e-03, 2.40702182e-02,
       -1.17627822e-03, -9.69151314e-03, -9.34954546e-03,
       -8.80057178e-03, 5.83364535e-03, -8.13551305e-04, -1.13421464e-02,
       1.39092868e-02, 4.79524815e-03, -7.07247341e-03, -1.66597683e-02,
       1.67047661e-02, -2.52938626e-04, -1.42070791e-02, -6.35130936e-03,
       -1.18826879e-02, -9.25189443e-03, -1.05172966e-03,
       -2.07980294e-02, -2.47777347e-03, -5.39326295e-03,
       -6.72566099e-03, 9.08054132e-03, 1.01966551e-02, 8.22550524e-03,
       1.97364530e-03, -1.08582266e-02, -6.78392500e-03, 1.71893206e-03,
       4.29305956e-02, 8.49999860e-03, 2.29576905e-03, -1.45196877e-02,
       -1.01834508e-02, -2.35385038e-02, -1.28366600e-03,
       -6.37640478e-03, -2.60679200e-02, 1.96588058e-02, 4.90082568e-03,
       1.62109658e-02, 1.39833065e-02, 6.40773308e-03, 2.59724446e-03,
       3.06677865e-03, -2.20499616e-02, -1.18336873e-02, -1.03709809e-02,
       3.20949126e-04, 8.94091278e-03, -8.27018265e-03, 7.98376556e-03,
       2.42786277e-02, 4.94528050e-03, -1.08394912e-02, -8.35563987e-03,
       2.40376052e-02, -6.13270560e-03, 1.31969554e-02, 1.84393264e-02,
       -8.34748987e-03, -1.44502316e-02, -1.16200009e-02,
       -3.42763262e-03, -1.42413946e-02, 1.75112803e-02, -7.07537215e-03,
       -1.73137244e-02, -1.55506350e-04, 4.76486329e-03, 1.18246209e-02,
       2.00420123e-04, -1.27047747e-02, 2.73551035e-04, -1.11770201e-02,
       3.55056277e-03, 2.05480913e-03, -1.34319998e-03, -1.45510705e-02,
       9.71954782e-03, 1.45065673e-02, -2.88748811e-03, 1.00020161e-02,
       -1.09662283e-02, -1.34023605e-03, 2.99455738e-03, 2.32041478e-02,
       -1.02431569e-02, -1.74902531e-03, -6.66882144e-03, 2.69709178e-03,
       -1.31369866e-02, -4.75869933e-03, -1.53501322e-02,
       -6.28638966e-03, 4.11034049e-03, 1.72281894e-03, 2.00134562e-03,
       9.18403175e-03, 9.77051910e-04, 6.31768536e-03, 1.65285356e-03,
       5.33632422e-03, -2.49467739e-05, 4.45789704e-03, -5.85900340e-03,
       8.61739332e-04, 2.02322826e-02, 2.28212960e-02, 6.11196365e-03,
       -1.28907815e-03, -3.49170598e-03, 1.59234256e-02, 1.82319619e-03,
       5.94629673e-03, -2.01489627e-02, -4.43732279e-04, 6.06191391e-03,
       1.95657425e-02, 1.07467985e-02, 1.76288970e-02, 2.09278124e-03,
       -2.68422556e-03, 7.90622644e-03, 5.85852424e-04, 5.02141425e-03,
       1.96229983e-02, 1.23536643e-02, 7.64378347e-03, -1.07506290e-02,
       -9.86800063e-03, 4.05178580e-04, 8.60520452e-03, -1.46316029e-02,
       8.34843330e-03, 3.04606673e-03, 1.19053423e-02, -1.16141997e-02,
       4.91884584e-03, 3.49377078e-04, 1.27979945e-02, 3.88433808e-03,
       -1.15770185e-02, -5.19307703e-03, -8.69450346e-03,
       -1.88414834e-03, -2.04361393e-03, 2.74995901e-03, 1.11882202e-02,
       1.39075909e-02, 1.68269337e-03, -1.25954452e-03, -8.85178149e-03,
       -3.40854214e-03, 1.98481996e-02, 1.42738258e-03, -4.97893104e-03,
       -1.53349029e-05, 2.22199457e-03, 6.33932417e-03, 5.37904818e-03,
       -3.63828102e-03, -3.71830002e-03, -1.57957450e-02,
       -3.46984714e-03, 6.41907100e-03, 1.34052592e-03, 2.11088732e-02,
       1.29977250e-02, 2.80066743e-03, 7.43811298e-03, -9.29136667e-03,
       -8.12874269e-03, -4.07456327e-03, 4.01857588e-03, -1.35924509e-02,
       -1.29607199e-02, 6.35368424e-03, 4.96074511e-03, 5.91120590e-03,
       5.75382262e-03, 8.58405512e-03, -6.53370097e-03, 1.69706321e-03,
       1.15772076e-02, 6.19696919e-03, -3.26709426e-03, 2.84444611e-03,
       5.28968498e-03, -2.82701710e-03, 7.37195695e-03, -1.02862362e-02,
       3.67208803e-03, -8.75715632e-03, -1.97148174e-02, -2.63461075e-03,
       -9.91409458e-03, 2.77055870e-03, 1.05054416e-02, 1.67595409e-02,
       2.46760249e-03, 4.90279356e-03, 9.07844951e-05, 9.38361418e-03,
       6.63467310e-03, 1.13692004e-02, 1.39812622e-02, -2.25776993e-03,
       -2.56901095e-03, -7.15821749e-03, -1.15979481e-02, 8.04674905e-03,
       -3.70204425e-03, 1.15447096e-03, -1.35578623e-03, -6.42714184e-03,
       -1.00744388e-03, 2.18264572e-02, 1.23816803e-02, 1.55655956e-02,
       6.95865462e-03, -1.45021519e-02, 9.51053866e-04, -7.40003400e-03,
       -8.50470387e-04, 6.32567843e-03, 4.16037207e-03, 7.23474333e-03,
       1.40994657e-02, 6.03008724e-04, -1.89421941e-02, -1.59763023e-02,
       -6.96572941e-03, -7.21785333e-03, -4.81565669e-03,
       -6.35511475e-03, 5.67453215e-03, 1.05536757e-02, 1.11499513e-02,
       6.84584724e-03, -5.34885051e-03, -1.07714655e-02, 9.23792773e-04,
       6.16301876e-03, -1.33468641e-03, 6.58361893e-03, 7.46128615e-04,
       -1.18742287e-02, -7.10318191e-03, 6.07617712e-03, 1.36950817e-02,
       -2.82536563e-03, -4.15118923e-03, -3.20963515e-03,
       -1.62442401e-02, 4.04395116e-03, -1.03987288e-03, 2.92697758e-03,
       -1.00305956e-02, -1.81617178e-02, 2.48354301e-03, -4.64005722e-03,
       5.95271261e-03, -8.39022081e-03, -1.65414263e-03, -5.84231166e-04,
       -6.20769756e-03, -1.93077940e-02, -3.36501352e-03,
       -7.87705241e-04, 3.13014467e-03, -9.75717092e-04, 4.07502841e-04,
       1.24754719e-02, -3.52044636e-03, 4.63072071e-03, 1.82210263e-02,
       1.15915239e-02, -1.89392567e-02, 1.91270560e-02, 5.35362307e-03,
       -1.33468956e-03, -1.13414088e-02, 7.31444685e-03, -9.01338586e-04,
       -3.33418837e-03, 1.08348001e-02, -8.00004043e-03, 1.54617522e-03,
       -7.82816263e-04, -5.61973220e-03, -1.62853755e-03,
       -5.82006667e-03, -2.83306907e-03, -7.10240891e-03, 1.49133531e-02,
       9.63031966e-03, -3.48362955e-03, -5.75104845e-04, -1.07570959e-03,
       -9.60939098e-03, -2.19213571e-02, -4.56178002e-03,
       -3.32798110e-03, -2.65520625e-03, 7.18419487e-03, 1.48580661e-02,
       -6.41861814e-04, -1.93480495e-02, -1.20109525e-02, 5.13228728e-03,
       -1.39381853e-04, -1.19787017e-02, -1.46378018e-03,
       -4.52473341e-03, 1.39745156e-04, -2.30877381e-03, -3.75575037e-03,
       -1.00533832e-02, -6.57939073e-03, -6.41750754e-04, 7.36117875e-03,
       -1.40810795e-02, -1.43498499e-02, -1.28484787e-02,
       -1.64346676e-03, -1.15966017e-03, 1.25488527e-02, 5.48025267e-03,
       8.66616145e-03, -4.80267825e-03, 1.21242236e-02, 6.77576289e-03,
       -2.62147859e-02, -2.71476503e-03, -7.17582006e-04, 3.63263488e-03,
       7.72481179e-03, 4.97692032e-03, 3.62749211e-04, 1.06748682e-03,
       6.24966342e-03, 8.38522986e-03, 6.24161679e-03, 4.86796896e-04,
       1.47935981e-02, 2.27333396e-03, -5.96502284e-03, -1.33804707e-02,
       -3.88759305e-03, -1.16223497e-02, 7.30684027e-03, 3.45709594e-03,
       9.27168224e-03, 1.08923600e-03, 3.97926616e-03, -7.03723961e-03,
       -5.33335377e-03, 1.44386524e-02, 4.95743332e-03, -1.03007313e-02,
       1.26609020e-02, 2.02501509e-02, -6.06858404e-03, -3.15840496e-03,
       1.76708295e-03, -2.92520039e-03, -7.81353284e-03, -3.89157562e-03,
       1.07991965e-02, 1.06133269e-02, 5.57086384e-03, 9.73432232e-03,
       1.71051119e-02, 3.03151598e-03, 2.03118729e-03, 9.12050530e-03,
       4.06250870e-03, 6.21314533e-03, -3.88418068e-03, 6.67711208e-03,
       2.86613870e-03, 1.41944736e-02, -9.68435965e-03, 7.41922529e-03,
       1.25445351e-02, -8.88037030e-03, 2.22646119e-03, 1.50070665e-02,
       -3.10023618e-03, -1.52232805e-02, -1.60179846e-03,
       -1.14974510e-02, -3.36514181e-03, 1.54480403e-02, 1.00405477e-02,
       8.42483900e-03, 4.97827446e-03, -3.22785764e-03, 1.46099748e-02,
       -7.84782576e-04, -3.52350739e-03, 1.31132472e-02, 1.34192426e-02,
       3.51433828e-03, 1.55622391e-02, 7.76195619e-03, -1.61559936e-02,
       4.45986399e-03, -5.22180134e-03, 9.95839946e-03, 1.63518582e-02,
       4.94646048e-03, -1.10459914e-02, -8.86051822e-03, 6.40175911e-03,
       2.63272878e-03, 1.49137294e-03, -5.58554335e-03, -8.76751076e-03,
       1.08460048e-02, 1.21044926e-02, -1.52480043e-02, -4.31031734e-03,
       -8.78629647e-03, 7.10838055e-03, -3.14260810e-03, 1.83102733e-03,
       5.16260928e-03, 9.66650248e-03, 1.07877050e-02, -1.72299184e-02,
       1.78510491e-02, 1.91306677e-02, 4.67802025e-03, 1.66350894e-03,
       5.70340920e-03, -4.07268619e-03, -9.23196902e-04, -1.11832535e-02,
       -1.04180742e-02, 1.69083253e-02, 1.82641260e-02, -8.92897602e-03,
       -1.66616496e-02, 1.20331394e-03, -8.66271183e-03, -4.02874174e-03,
       -1.81851685e-02, -8.35234672e-03, -1.27615649e-02,
       -4.60272934e-03, 7.82911945e-03, 3.71183711e-03, -2.41080043e-03,
       3.17941001e-03, -4.19769995e-03, -7.86089455e-04, -1.15899658e-02,
       -6.37133792e-03, 2.01925859e-02, 2.91085709e-03, -1.58999476e-03,
       -2.23200908e-03, 1.30352555e-02, 3.62780615e-04, -1.16812410e-02,
       1.92268752e-02, 1.26774190e-02, -4.84626601e-03, -1.31777572e-02,
       -8.30182992e-03, -8.56411085e-03, 1.33831268e-02, 1.06443616e-03,
       -6.89717708e-03, 2.98576523e-03, 6.09548064e-03, -4.55916161e-04,
       3.66777135e-03, -7.64246332e-03, -1.42964050e-02, 3.84266791e-03,
       1.08347898e-02, -1.45463413e-02, -9.92571004e-03, -5.27993217e-03,
       -1.11158481e-02, -1.47747807e-02, 5.76410349e-03, 2.31840811e-03,
       1.58318765e-02, -2.09793658e-03, 6.53250702e-03, -1.64618213e-02,
       1.02003450e-02, -9.09788720e-03, 1.92208178e-02, 9.90020297e-03,
       1.69420559e-02, 7.92630017e-03, 1.43585727e-02, 4.51435288e-03,
       -3.65090702e-04, -6.47114590e-04, -3.18313390e-03, 4.32657124e-03,
       -7.49262981e-03, -7.07951654e-03, 4.81998781e-03, -1.55692082e-03,
       -1.08153336e-02, -6.33679377e-03, -9.48438421e-03,
       -2.82962644e-03, 3.60808015e-04, 7.07981968e-03, 1.21461079e-02,
       5.11423964e-03, 1.12782642e-02, 1.79618392e-02, 1.87640954e-02,
       1.61181577e-02, 4.23367659e-04, 7.87441619e-03, 6.10885210e-03,
       8.05654004e-03, 2.17094808e-03, 1.02639040e-02, 3.12283775e-03,
       3.70653695e-03, 1.78260859e-02, -6.83422200e-03, -2.27589952e-03,
       5.44446055e-03, 1.90623887e-02, 7.34191993e-03, 3.01003898e-03,
       2.22033309e-03, 6.62796944e-03, -1.74519494e-02, 6.82971033e-04,
       5.97465842e-04, -4.01780521e-03, 2.01543933e-03, 2.33308524e-02,
       5.23055438e-03, 1.33302119e-02, 1.67292394e-02, -2.38170149e-03,
       1.49538536e-02, -1.80870632e-03, -7.23812962e-03, -1.55723956e-03,
       -7.70885730e-04, -7.21944682e-03, -6.78270007e-04, 3.06911059e-02,
       -1.01898471e-02, -8.01523868e-03, -1.69428717e-02, 1.12424716e-02,
       5.85821504e-03, -7.92092978e-05, -2.31904611e-02, -1.45914766e-03,
       -9.33922268e-03, -4.99194534e-03, 1.05946381e-02, -5.52284240e-04,
       1.65188848e-03, 7.42301857e-03, -3.06879240e-03, -1.03537869e-02,
       6.32871035e-03, 8.34159832e-03, -1.82602741e-02, 2.47468967e-02,
       9.94326081e-03, -1.78815890e-02, -1.68315333e-03, 1.28022572e-02,
       -1.08973850e-02, 2.24525668e-03, 1.67244617e-02, 4.37498419e-03,
       1.19850766e-02, 3.02112056e-03, -1.18548712e-02, -1.28843049e-02,
       -9.54430667e-04, 5.74009866e-03, 3.20498412e-03, -2.62594153e-03,
       -4.62916680e-03, 8.62990797e-04, 1.72407029e-03, -9.14503448e-03,
       6.16910867e-03, -9.36732744e-04, -5.58008160e-03, 2.65256572e-03,
       -4.08680318e-03, -9.30437259e-03, 1.30082136e-02, 1.69899804e-03,
       4.40579513e-03, -7.95224868e-03, -1.18123339e-02, 1.36984279e-03,
       -1.40566071e-02, 1.08406954e-02, 6.10203715e-03, 2.71226367e-04,
       -9.88423591e-04, -8.70310701e-03, -7.49700004e-03, 1.37072979e-02,
       3.77505529e-03, -1.07560456e-02, -1.66652794e-03, -1.32868802e-02,
       3.68337799e-03, -2.43714009e-03, -7.13153649e-03, -1.82316347e-03,
       1.82131573e-03, 9.01497027e-04, 1.74239054e-02, 3.93917644e-03,
       4.43444325e-04, 3.32662161e-03, -1.45696783e-02, 1.46106156e-02,
       -8.87420843e-04, -4.28698026e-03, -7.29354273e-04,
       -1.81420371e-02, -2.02259757e-02, 5.08461706e-03, -8.93720333e-03,
       -4.11171513e-03, -1.34060951e-02, -8.45437404e-03,
       -4.87380987e-03, 1.35896029e-03, 5.40007139e-03, 8.96030199e-03,
       7.57633941e-04, 1.12281879e-02, 1.71234738e-02, -1.40615636e-02,
       3.16485669e-03, 6.41302345e-03, 7.17457151e-03, 1.43465027e-02,
       3.30496160e-03, -4.63997107e-03, -3.50537547e-03, 4.68117837e-03,
       7.04031484e-03, 7.20837852e-03, -9.28378105e-03, 2.98768724e-03,
       6.50764676e-03, -3.42351414e-04, -1.26423147e-02, 2.06701597e-03,
       -4.05677175e-03, 5.78286010e-04, 1.96304149e-03, 3.35640647e-03,
       -1.19428290e-02, 1.69855542e-02, -7.32416846e-03, 5.30888233e-03,
       3.22167529e-03, 8.04532040e-03, -1.63530151e-03, 8.90406128e-03,
       1.78588345e-03, 5.89802675e-03, 2.90800421e-03, -4.22069337e-03,
       -8.95781850e-05, -1.23375105e-02, 3.82218161e-03, -1.48895022e-04,
       -1.15477736e-03, 3.46447411e-03, -2.72531528e-03, 8.43159948e-03,
       1.18208611e-02, -1.19270117e-03, -1.32785207e-02, 9.57421493e-03,
       1.94850713e-02, 7.31067092e-04, -8.71829968e-03, -2.05663964e-02,
       -9.38943587e-03, 3.60060181e-03, 1.14100508e-03, -1.01642776e-02,
       -9.70934425e-03, 1.18967993e-02, 3.30631481e-03, 1.04736115e-04,
       -8.42194166e-03, 4.38718032e-03, -2.76714534e-04, -4.13512392e-03,
       -6.59088045e-03, -5.03699109e-03, 1.07849166e-02, -1.42107373e-02,
       -8.68662819e-03, -3.07350466e-03, 5.50639257e-03, 7.49090780e-03,
       -5.97393420e-03, 3.74409789e-03, 1.39075397e-02, 1.29154939e-02,
       7.59418914e-03, -9.44264792e-03, -1.16301840e-02, -7.17714755e-03,
       6.78902492e-03, 6.66841865e-03, 6.74290303e-03, -8.62910692e-03,
       -1.58152133e-02, 8.37684236e-03, 4.74441191e-03, -4.66539804e-03,
       -7.92984758e-03, 1.84645131e-03, 1.21972954e-03, 3.92534491e-03,
       -1.86076073e-03, 2.13190354e-03, -1.09733688e-02, 1.23787625e-03,
       1.29522653e-02, 3.68321169e-04, -1.31901419e-02, -6.87859952e-04,
       1.78941786e-02, 7.81220710e-03, -1.65232234e-02, -1.31380362e-02,
       6.62425952e-03, -1.13287987e-03, -1.57586709e-02, -5.48123475e-03,
       1.22955895e-03, -2.12247018e-02, -1.22957081e-02, 1.41413056e-03,
       -5.72185777e-03, 1.33124636e-02, -3.74014326e-03, 1.28521472e-02,
       9.88611858e-03, -4.83138300e-03, -1.09171616e-02, -4.30654036e-03,
       -8.12333357e-03, -3.22382967e-03, -1.02090335e-03,
       -1.85014994e-03, -1.12430118e-02, 2.40580202e-03, 4.10149992e-03,
       4.59151482e-03, 3.86374374e-03, -5.69364196e-03, -3.83203966e-03,
       2.34873910e-02, 4.67572827e-03, 2.85979733e-02, 1.96599402e-02,
       -1.33331772e-02, -9.70606133e-03, -4.27512079e-03, 6.55196956e-04,
       6.88918773e-03, 2.24864502e-02, -7.43259676e-03, 9.79292206e-03,
       1.60508603e-02, -4.46187239e-03, 1.23829944e-02, -2.61572027e-03,
       2.26675142e-02, 3.97976208e-03, 7.51331076e-03, 1.96383800e-02,
       2.07881327e-03, 3.87005100e-04, 4.24511352e-04, 1.70542616e-02,
       9.97910625e-04, -4.34137881e-03, -3.09767958e-04, 6.71265228e-03,
       2.23944662e-03, 1.39636891e-02, 3.87276034e-03, -3.15615162e-03,
       -7.28667621e-03, -1.06856376e-02, 9.89184715e-03, 4.90031205e-04,
       4.25307127e-03, -6.77679526e-03, 1.24376398e-02, -6.46758173e-03,
       -4.76098526e-03, 5.83767565e-03, 1.13619547e-02, -4.38392535e-03,
       1.33147240e-02, 3.43332090e-03, -8.41107219e-03, -1.51908007e-02,
       -1.40248453e-02, -5.28656365e-03, 1.10821808e-02, 7.17990054e-03,
       -9.97097581e-04, 7.69938668e-03, -1.72778055e-05, -9.53835063e-03,
       3.48558486e-03, -6.89435704e-03, -1.02303317e-03, -4.65674791e-03,
       5.04861295e-04, 7.47318007e-03, 1.26422308e-02, 8.16694461e-03,
       1.91950649e-02, -2.60834512e-03, -1.93254091e-02, -1.11071207e-03,
       3.36484314e-04, -7.57500855e-03, -3.41634033e-03, 2.07215990e-03,
       -6.34256145e-03, -4.92875092e-03, -7.11223437e-03,
       -2.40034307e-03, 5.67234820e-03, 2.11951300e-03, 8.51743016e-03,
       5.67560690e-03, 2.45404639e-03, 1.90193346e-03, 5.79935638e-03,
       1.77876570e-03, -5.16332313e-03, 1.52689568e-03, 1.66299811e-03,
       -2.16020774e-02, 1.97268208e-03, -1.21865724e-03, 6.61018630e-03,
       3.13368021e-03, 6.30387804e-03, -2.26500328e-03, 1.27746379e-02,
       3.48706008e-03, -1.24353655e-02, -7.09713576e-03, 2.58851494e-03,
       -8.01344030e-03, -3.59647698e-03, 1.78024694e-02, 5.13380580e-03,
       1.13118039e-02, -6.07256358e-03, -5.21610165e-03, -2.38549337e-03,
       -2.26925313e-03, 1.83286367e-03, 5.50612016e-03, -1.04555082e-04,
       -4.00068983e-03, 3.02758571e-02, -1.06690796e-02, 1.02800922e-02,
       -1.25926025e-02, -7.43136276e-03, -6.85376534e-03, 1.91990845e-02,
       -5.11790253e-03, 1.15375742e-02, 1.46665215e-03, -1.08806475e-03,
       -8.17733724e-03, 8.95976648e-03, 1.39618898e-02, -1.61850564e-02,
       9.80926957e-03, -3.61992366e-04, -2.37597059e-03, -7.60031957e-03,
       6.28770981e-03, 1.47418061e-03, -6.67033065e-03, 5.59306098e-03,
       -1.04275327e-02, 3.07083968e-03, 6.24566898e-03, -1.52362380e-02,
       4.52915533e-03, -1.08624985e-02, 1.00624133e-02, 1.52051095e-02,
       9.76226665e-03, -8.45298346e-04, -1.07324431e-02, 2.30770232e-03,
       -5.39791677e-03, -2.90816766e-04, 1.66334324e-02, 1.16468491e-02,
       -8.31628870e-03, 1.11717200e-02, -5.64326067e-03, -5.88866696e-03,
       1.82207506e-02, -8.09844676e-03, -1.57435015e-02, 4.43346659e-03,
       5.44485776e-03, -3.19852494e-03, -5.72800497e-03, 4.85293660e-03,
       -1.35768661e-02, -1.89936406e-03, -2.14527245e-03, 1.99876865e-03,
       1.52978610e-04, -5.86398225e-03, -3.08769662e-03, -1.91873393e-03,
       1.17699020e-02, 2.31128346e-04, -2.04959568e-02, 2.26163398e-03,
       -1.46454973e-02, 7.88692292e-03, -3.42341512e-03, -9.47539601e-03,
       1.53344905e-03, 1.45962252e-03, -9.05612297e-03, 4.19462333e-03,
       3.90253635e-03, -2.11388362e-03, -3.14922142e-03, -1.92391332e-02,
       -7.52129476e-04, -2.44827401e-02, 2.51606177e-03, 9.06861201e-03,
       -4.00837045e-03, 4.39678552e-03, 7.74962083e-03, 4.38244455e-03,
       9.13550262e-04, -7.84256682e-03, -2.55199266e-05, 3.28194140e-03,
       -6.11961260e-03, -1.08186156e-02, 1.28686358e-03, -4.78350697e-03,
       5.54807996e-03, -9.70307644e-03, -9.08290781e-03, -4.48287930e-03,
       -9.18345153e-03, -4.72512562e-03, -4.45104530e-03,
       -1.44449866e-03, 1.65839512e-02, 1.47574926e-02, -2.07679160e-02,
       2.19805530e-04, 3.02718254e-03, 7.10689416e-03, 1.68617237e-02,
       2.99014244e-03, -1.73135381e-02, -1.84931187e-03, -5.72882500e-03,
       -1.43769302e-03, 1.68445974e-03, 7.77850067e-03, 2.46604043e-03,
       5.08357957e-03, -7.62975262e-03, -1.49183543e-02, -5.51894074e-03,
       3.45789827e-03, -4.27456293e-03, -1.66698522e-03, -1.31242129e-03,
       -4.28130152e-03, -1.12126851e-02, 2.81655113e-03, -1.32796005e-03,
       -9.71904583e-03, -5.57264592e-03, 6.56604068e-04, -4.92632017e-03,
       7.11807376e-03, 5.08749299e-03, 4.78578685e-03, 1.25911832e-02,
       -1.96527084e-03, -6.86701387e-03, 7.59361501e-06, 7.14112772e-03,
       -6.99373567e-03, 1.44322705e-03, -8.05666484e-03, 1.40445530e-02,
       -1.22467177e-02, -1.13930125e-02, -8.35801009e-03,
       -4.10843350e-04, 8.62299465e-03, -1.14695886e-02, 2.21350580e-03,
       -1.29711144e-02, 9.13209934e-03, -1.84386745e-02, 1.53916664e-02,
       1.21512811e-03, 6.66181464e-03, -1.40477216e-03, 5.01385238e-03,
       -2.70923674e-02, -1.10701732e-02, -3.52974818e-03, 3.02511035e-03,
       -1.76091515e-03, -1.19409186e-03, -1.02448324e-02,
       -7.63592729e-03, 2.36712187e-03, -1.09156109e-02, 5.69719402e-03,
       -9.70261730e-03, -3.30674741e-03, -1.10275205e-02,
       -9.71450412e-04, -3.89631744e-03, 1.92492013e-03, -9.98560339e-04,
       -6.78010657e-03, -1.56611335e-02, 7.91868754e-03, 3.28586064e-03,
       -9.45583452e-04, 9.97179747e-03, 5.90073550e-03, -2.04917998e-03,
       -3.05659883e-03, 1.23630194e-02, -5.75738668e-05, 1.91726617e-03,
       -3.60883703e-03, 3.40577983e-03, 3.11534014e-03, -2.53868988e-03,
       -8.90008116e-04, 5.32291457e-03, 1.07562533e-04, 1.08942564e-03,
       -2.11937223e-02, 5.97709557e-03, 1.05279680e-04, 1.59751233e-02,
       6.08474528e-03, -1.21315001e-02, -1.19663393e-02, -1.18978573e-02,
       -2.42166477e-03, 5.38288057e-03, 1.08644217e-02, 2.89947726e-03,
       1.03704855e-02, -3.80545302e-04, -4.37668106e-03, -4.09582909e-03,
       -1.78417321e-02, -5.02592605e-03, -2.15338101e-03,
       -8.82313703e-04, -1.45735294e-02, 3.20108123e-02, 2.83878390e-03,
       9.91538540e-03, -1.14048924e-03, 3.50431819e-03, -1.34893609e-02,
       -1.28630188e-03, 1.24153085e-02, -1.14339646e-02, -5.63461147e-03,
       -2.67286110e-03, -7.02694478e-03, 7.07458612e-03, -3.21796699e-03,
       2.18659057e-03, -2.70823482e-03, 6.22795941e-03, 2.10063178e-02,
       -8.51600524e-03, 1.17956698e-02, -1.71349552e-02, 8.81235395e-03,
       -1.66062322e-02, -1.27503341e-02, 1.63089763e-02, -3.32102343e-03,
       6.56483229e-03, 4.28860774e-03, -9.92329698e-03, -7.10613839e-03,
       -1.86000939e-03, 1.24292932e-02, 6.19291747e-03, 2.67771445e-03,
       8.72901734e-03, -1.49839744e-02, 2.94211414e-03, 7.46270269e-03,
       -5.29081002e-03, 5.36786113e-03, -1.45809399e-03, -1.48034713e-03,
       9.15550161e-03, 7.39480276e-03, -4.32622479e-03, -3.31663270e-03,
       3.90374451e-03, 1.69308891e-03, 1.49065154e-02, 4.30569146e-03,
       -7.22344825e-03, 7.90379290e-03, 1.91280304e-03, -3.10144387e-03,
       7.02856435e-03, -1.70535855e-02, -6.76822942e-03, -7.65962014e-03,
       7.72436429e-03, 2.17417558e-03, -8.39047076e-04, -8.28221440e-03,
       3.11960327e-03, 8.64651147e-03, 4.69943043e-03, -3.12122563e-03,
       -1.39269233e-02, 9.00569372e-03, -5.77469543e-03, 6.10112725e-03,
       -7.49339256e-03, -1.28484638e-02, 1.10716643e-02, 2.50337087e-03,
       -3.39886581e-04, -4.45814617e-03, 6.30388130e-03, 9.32669907e-04,
       -2.11893907e-03, 1.04003539e-02, 7.73482816e-03, -7.61907315e-03,
       -1.66587508e-03, -6.64889999e-03, 8.99643078e-03, 5.30356495e-03,
       3.81984981e-03, -1.13050472e-02, -1.15846256e-02, -1.64719485e-02,
       1.72310024e-02, -3.16031394e-03, -1.21001285e-02, -1.28503395e-02,
       -9.34147183e-03, 2.31204694e-03, -1.38263060e-02, -8.72305036e-03,
       2.75999657e-03, 6.61908928e-03, 7.40732579e-03, -6.46657730e-03,
       7.74075603e-03, -9.22622252e-03, -7.91944843e-03, 8.91224667e-03,
       -5.40987030e-03, -3.18707805e-03, 2.82773143e-03, 1.08957558e-03,
       -5.34631265e-03, -2.05061957e-02, -7.57640600e-03,
       -7.11994013e-03, 8.49220436e-03, 1.07704708e-02, 9.82053671e-03,
       1.04730772e-02, 8.19831900e-03, -1.03505598e-02, 6.52750535e-03,
       3.59506207e-03, 1.64152011e-02, -2.01863181e-02, -5.93770714e-03,
       -2.17141509e-02, 1.15982471e-02, -7.83659890e-03, 7.40404474e-04,
       6.37902599e-03, -3.41974618e-03, -3.46244895e-03, 5.37716690e-03,
       -8.58701125e-04, 3.54038784e-03, 3.67619586e-03, 9.44906846e-03,
       -7.08940951e-03, -1.53463650e-02, -1.09499423e-02, 3.39527708e-03,
       -1.74298696e-02, -9.99893714e-03, -3.13676754e-03, 2.35728873e-03,
       -1.24659957e-02, -1.71375796e-02, -2.99006444e-03,
       -9.34165902e-03, 7.35414820e-03, -3.73027660e-03, -9.05322470e-03,
       9.05799773e-03, 2.32917504e-04, 2.06288658e-02, 1.87267852e-03,
       2.53333170e-02, 2.71712779e-04, -5.78681240e-03, 4.98172641e-03,
       -4.18930035e-03, 5.62067097e-03, 1.31520710e-03, 8.60717054e-03,
       -5.31606725e-04, -1.14502735e-03, 5.11533697e-04, 7.95699190e-03,
       8.70143343e-03, 2.86858925e-03, -1.26146590e-02, 8.17768741e-03,
       -2.03819713e-03, -1.89500693e-02, 1.18761258e-02, 1.74682811e-02,
       1.46785593e-02, 3.14753992e-03, -4.17620642e-03, -1.54051995e-02,
       1.22262212e-02, -1.13400323e-02, -8.37803259e-03, 6.00542128e-03,
       1.10445439e-03, -1.20913063e-03, 2.11683451e-03, 1.02879629e-02,
       -2.06434224e-02, -1.91084400e-04, -2.37656850e-03, 4.91513964e-03,
       2.86685978e-03, 1.01304362e-02, 2.64101569e-03, -8.37808102e-03,
       2.76761595e-03, -6.62380503e-03, -3.17757088e-03, 1.40434252e-02,
       2.29443330e-03, -4.73813573e-03, -1.76676002e-03, 3.22206155e-03,
       -1.45140933e-02, -4.79411567e-03, 1.11234607e-03, 1.40081607e-02,
       -1.21010477e-02, -6.81924960e-03, 5.69469901e-03, 6.26694737e-03,
       -5.21701528e-03, 8.71402957e-03, -1.35771595e-02, -2.02283617e-02,
       1.80825647e-02, 1.02277966e-02, 2.77678220e-04, -9.30580776e-03,
       -2.56282673e-03, 3.25997267e-03, 1.77639797e-02, -7.40860542e-03,
       6.31214911e-03, -8.92962329e-03, 9.94816329e-03, -5.58666186e-03,
       -6.80597872e-03, -7.61733809e-03, -6.92214817e-03,
       -1.63395777e-02, 1.36597315e-02, -6.36120606e-03, 1.15425112e-02,
       5.71065256e-03, 4.54311885e-05, 8.94386601e-03, 5.64840529e-03,
       -1.44193962e-03, -2.71130260e-03, 2.49994770e-02, 2.13011494e-03,
       -1.58277266e-02, -2.18374236e-03, -2.60587130e-02,
       -1.96988042e-03, -7.29304564e-04, 1.10530378e-02, 1.79011486e-02,
       -7.38452468e-03, -2.23506838e-02, 1.02818627e-02, 1.85136404e-02,
       -3.87087418e-03, -6.53934618e-03, -2.80449959e-03, 2.50409660e-03,
       1.08174076e-02, 1.80890004e-03, -1.22539764e-02, 4.99316957e-03,
       1.68500096e-02, -7.15274829e-03, 7.36282812e-03, -6.23555062e-03,
       -1.22248335e-02, -1.08848270e-02, 2.47950410e-03, 9.99847986e-03,
       7.84870144e-03, 8.60189460e-03, -3.32960603e-03, 9.62312520e-03,
       5.96493436e-03, -6.25814637e-03, -9.56484489e-03, -6.63687661e-03,
       4.12344234e-03, 1.91882439e-02, 8.12045299e-03, 3.73781915e-03,
       -2.65703816e-03, 1.65722612e-03, -1.32716009e-02, 3.18896235e-03,
       4.40492015e-03, 4.26317565e-03, 1.52748469e-02, -8.21724068e-03,
       -1.41725561e-03, 7.97200203e-03, 7.26489304e-03, -7.17227440e-03,
       3.02962284e-03, 1.45290736e-02, 2.29957141e-02, -8.39928724e-03,
       -2.59767775e-03, -1.50805963e-02, 1.29387351e-02, 8.74093617e-04,
       3.86099354e-03, 4.55072986e-05, -4.73327003e-03, -7.84997176e-03,
       -3.20693222e-03, -2.87129916e-02, -3.75256618e-03,
       -6.81409379e-03, -8.85539805e-04, -4.26495820e-03, 9.24622174e-03,
       -1.45731156e-03, 9.76133998e-03, -1.99824180e-02, -1.00390892e-02,
       3.01087555e-03, 2.64874324e-02, 2.88042030e-03, 4.97280713e-03,
       5.94240753e-03, 1.26931742e-02, -1.10892439e-03, 9.33750905e-03,
       -3.15016112e-03, 5.78827749e-04, 1.49127713e-03, 7.23394565e-03,
       -1.95316505e-02, -5.21758990e-03, 2.93337833e-03, 3.61409411e-03,
       -1.52007602e-02, -2.16351133e-02, 6.40774798e-03, 1.60041766e-03,
       -2.79064802e-03, 4.50477761e-04, -1.39369359e-02, -1.88105949e-03,
       -5.23777911e-03, -1.72821432e-02, -3.05750198e-03, 4.73357970e-04,
       -1.02226716e-03, 1.86863579e-02, 2.21471153e-02, -6.46115653e-03,
       2.03412110e-05, -1.23843085e-02, 5.57699427e-03, -5.53411897e-03,
       -1.86797306e-02, -6.17177458e-03, -4.71933832e-04,
       -6.27846317e-03, -1.85338757e-03, 4.16557817e-03, -7.44720409e-03,
       7.71634979e-03, -1.22975251e-02, -3.20363767e-03, -5.03217289e-03,
       9.91659332e-03, 1.95528753e-03, -6.84189284e-03, -3.89800430e-03,
       -1.19037591e-02, 1.26584237e-02, 1.44392531e-02, -2.00981670e-03,
       -3.95995099e-03, -4.60796943e-03, 8.13629199e-03, 4.52869851e-03,
       7.70112546e-03, 1.85294989e-02, -9.83953942e-03, 1.24116393e-03,
       -7.42895389e-03, 1.08858319e-02, -1.06754834e-02, 1.91125832e-03,
       4.82819509e-04, -4.26436914e-03, -1.59065109e-02, 2.94645224e-03,
       1.01943454e-02, 6.89497311e-03, 1.45508151e-03, -6.59222296e-03,
       -1.16637461e-02, -2.41894331e-02, -5.04450873e-04,
       -2.58568255e-03, -9.59105138e-03, -4.39973408e-03,
       -5.76993171e-03, -3.25596263e-03, -3.66933155e-03,
       -1.15449447e-02, -1.29044270e-02, 6.59391843e-03, -1.00693209e-02,
       8.45770538e-03, 2.50204280e-02, -6.79499411e-04, 1.24731241e-02,
       -1.33798160e-02, -1.10560830e-03, 2.46001175e-04, -1.61040598e-03,
       -1.08328396e-02, 1.51038654e-02, 3.26428562e-03, -2.15530628e-03,
       1.21677434e-02, 1.75374080e-05, -7.49112060e-03, 6.59411526e-05,
       1.63943728e-03, 3.19737848e-03, 1.03213638e-03, -5.45048434e-03,
       -1.99146997e-02, -3.86020145e-03, -1.46185169e-02,
       -9.05777095e-04, 1.25288796e-02, 1.97758973e-02, -2.75388989e-03,
       2.43483111e-03, 1.26564305e-03, 7.53600500e-04, 4.09982633e-03,
       -6.93120761e-03, -2.88880300e-02, 4.06737672e-04, 9.38118994e-03,
       1.56500563e-02, -2.11445242e-03, -5.54324314e-03, 1.19601458e-03,
       -3.24403099e-03, -1.53790426e-03, 3.98107059e-03, 2.94630439e-03,
       -8.14331882e-03, 1.18495582e-03, -5.88054769e-03, 5.82842017e-03,
       7.79236143e-04, -7.30426190e-03, 1.56773487e-03, 8.53798259e-03,
       9.64201987e-03, -1.19265094e-02, 1.64109673e-02, 8.09027348e-04,
       9.15710442e-03, 6.65545138e-03, 6.82700891e-03, 2.56409664e-02,
       -1.13409739e-02, -1.26490684e-03, 4.36551031e-03, 5.14428783e-03,
       -4.04574908e-03, -4.76523302e-03, 1.19643947e-02, -2.74370634e-03,
       1.01164375e-02, -1.42026704e-03, 2.84817419e-03, -3.32445698e-03,
       2.51343497e-03, -1.07771659e-03, 6.16148440e-03, -1.08833723e-02,
       1.85595523e-03, 7.25902244e-03, -4.92303586e-03, -1.61076605e-03,
       -5.33704269e-06, 1.10398503e-02, 4.83157579e-03, -7.44137680e-03,
       -2.28093639e-02, -2.15291847e-02, -2.82179052e-03, 6.66518975e-03,
       -5.15023433e-03, 9.24056862e-03, 1.01362902e-03, -1.30407244e-03,
       -3.45492642e-03, -4.56445385e-03, 6.27445243e-03, 2.55324785e-03,
       -1.30400183e-02, -3.22891097e-03, -8.33845325e-03,
       -8.26043915e-03, -1.85845911e-05, 9.19213425e-03, -6.50302833e-03,
       1.47706633e-02, 1.67486966e-02, -1.16158668e-02, 4.49885475e-03,
       8.30499083e-03, -1.55346878e-02, 8.44934490e-03, -2.44742120e-03,
       -1.15785496e-02, 3.40842502e-03, -1.26162162e-02, 1.71265658e-02,
       4.24233222e-05, -3.47230490e-03, 9.05367918e-03, -5.76838106e-03,
       -2.44946638e-03, -4.87694191e-03, 1.60555225e-02, -2.75378395e-03,
       9.18118190e-03, -1.82250701e-03, 1.41823385e-03, -1.41560808e-02,
       -3.48390662e-03, -1.28834117e-02, -4.60357312e-03, 1.33097926e-02,
       -3.24076903e-03, 5.41056832e-03, 7.64939818e-04, 2.29963055e-03,
       -9.35768709e-03, -8.61701649e-03, -2.82147042e-02,
       -6.57204771e-03, 1.46015156e-02, -1.68167669e-02, 5.63695235e-03,
       6.62248931e-04, -5.30174293e-04, -1.64046716e-02, -1.79257989e-02,
       9.32816998e-04, 4.15583001e-03, -8.52828030e-04, -8.04298371e-03,
       -2.47574470e-04, -2.72949226e-03, -2.27934215e-03,
       -8.12018476e-03, 6.61771558e-03, 3.03899893e-03, 3.62837058e-03,
       1.43091856e-02, -2.71856668e-03, 4.97500133e-03, -1.06958095e-02,
       5.36579685e-03, -7.94894528e-03, -1.12842880e-02, -4.70036361e-03,
       -2.04266794e-03, 1.68460421e-03, -4.85614827e-03, -6.80041453e-03,
       7.91441649e-04, -1.77183910e-03, -8.86723213e-03, -5.49208606e-03,
       9.57515556e-03, -4.55791550e-03, 5.03223017e-03, -7.18104793e-03,
       -5.81074506e-04, -4.22581518e-03, 1.69968139e-03, -6.17075013e-03,
       -1.98809477e-03, -6.81146933e-03, 6.04753091e-04, -1.18385060e-02,
       1.27898622e-03, 8.81997752e-04, -2.38790084e-02, -1.45371910e-02,
       -1.37223946e-02, -1.35120610e-02, 9.71756235e-04, 8.34785867e-03,
       -1.57843123e-03, -8.22704006e-03, -4.96794702e-03,
       -5.92508866e-03, 1.41411237e-02, -3.60987103e-03, 4.06052219e-03,
       -5.58890123e-03, -1.26006883e-02, -8.17510672e-03, 3.10398173e-03,
       -7.33376155e-03, -1.94899235e-02, -4.53601917e-03,
       -1.01727154e-02, -1.07908864e-02, -5.86291123e-03,
       -2.59847823e-03, -4.91230004e-03, -7.60375697e-04,
       -1.50632160e-02, -2.12989422e-03, -5.76062687e-03, 1.01067200e-02,
       -1.83119588e-02, 1.06205745e-02, -9.73211695e-03, 1.72877696e-03,
       -3.66539974e-03, -2.72465963e-03, -3.59250442e-03,
       -6.53393427e-03, -7.86888320e-03, -1.32446019e-02,
       -8.42130557e-03, -2.87599885e-03, 1.00438986e-02, 1.69920153e-03,
       -2.12837267e-03, -1.09735096e-03, 4.85298084e-03, -1.23470407e-02,
       -6.72580302e-03, -1.12671908e-02, 3.80025922e-05, 4.23947629e-03,
       -6.54140161e-03, -7.90327135e-03, -4.64010285e-03, 3.39571247e-03,
       1.25097306e-02, -5.96055062e-03, -5.35962079e-03, 2.90686334e-03,
       6.49966160e-03, -1.62801822e-03, -5.58172399e-03, -2.52701552e-03,
       -1.44147575e-02, -5.70974266e-03, 3.01998970e-03, 9.04406246e-04,
       9.54644289e-03, 1.92116201e-02, 2.41998751e-02, -3.58153787e-03,
       8.74065328e-03, 1.34476125e-02, -1.59009674e-03, 4.12752107e-03,
       5.60780661e-03, 8.60860385e-03, 2.11660727e-03, 9.75205621e-04,
       -1.45105282e-02, 7.26176222e-05, -9.58529208e-03, -6.56949589e-03,
       1.01657715e-02, 1.96918752e-03, -1.78208500e-02, -6.06444292e-03,
       7.41397636e-03, 1.34380311e-02, 1.91014484e-02, 8.92802433e-04,
       -3.68014909e-04, 4.30987403e-03, -8.91492423e-03, -4.16051922e-03,
       -2.12977417e-02, -1.88039767e-03, -1.43018113e-02, 9.87221114e-03,
       -2.31264392e-03, 1.16456719e-02, 7.85789918e-03, 7.02038314e-03,
       5.68403630e-03, 1.09777506e-02, 1.64261973e-03, 5.48909092e-03,
       -4.41236282e-03, -2.10177582e-02, -2.50972761e-03, 1.28954686e-02,
       -5.32214472e-04, 6.05320558e-04, -2.23239535e-03, 8.28643050e-03,
       -1.19533101e-02, -7.68092833e-03, 5.96055994e-03, 6.55951770e-03,
       -1.30206486e-03, 1.81890768e-03, 9.96606331e-03, 1.24531961e-03,
       -2.91844917e-04, -3.96227930e-03, 1.13365706e-02, -4.30020737e-03,
       1.63090713e-02, -1.81497913e-02, -2.90587964e-03, 8.39470793e-03,
       -1.91863684e-03, -5.58903581e-03, -1.63228400e-02, 4.71656502e-04,
       9.38340556e-03, 1.24950306e-02, 7.39995576e-03, -1.13510406e-02,
       5.66731114e-03, 9.84004606e-03, -2.60805921e-03, -1.30119966e-02,
       -1.32007885e-03, -1.07126739e-02, -1.52139785e-02, 1.75998248e-02,
       -7.03309663e-03, -6.32984843e-03, 6.83130976e-03, -2.57568987e-04,
       1.04936911e-02, 6.37964532e-03, 8.30353703e-03, -1.89353968e-03,
       -6.59794454e-03, -3.98280239e-03, -1.54473260e-03, 4.76893922e-03,
       -1.27480486e-02, -1.54112894e-02, -3.67462868e-03, 5.89592475e-03,
       4.06150054e-03, 4.09930712e-03, -2.89751752e-03, -8.65409896e-03,
       7.69894570e-03, 2.23629642e-03, 5.50248148e-03, 4.52161627e-03,
       -5.98486373e-03, -1.33307639e-03, 7.69063411e-03, -9.08133760e-03,
       -4.15311055e-03, 1.36803119e-02, -1.29758436e-02, 1.17933434e-02,
       1.38233751e-02, 5.85966744e-03, -4.96733608e-03, 1.57973822e-02,
       1.44938147e-02, 1.14165321e-02, 6.03887299e-03, -3.55476746e-03,
       -1.90384164e-02, 6.55261287e-03, -6.97669201e-03, -3.51754413e-03,
       1.81788467e-02, 3.33330082e-03, -7.69624906e-03, -9.68134403e-03,
       -9.98351164e-03, 1.33228989e-03, -6.41509285e-03, -2.14866898e-03,
       -8.74501932e-03, -2.02619731e-02, -1.39980149e-02,
       -1.65802203e-02, -3.01893894e-03, -2.35652318e-03,
       -1.80384945e-02, -1.19669093e-02, -6.50694873e-03,
       -1.20083522e-03, 1.35346432e-03, -1.55077362e-03, 1.15264412e-02,
       1.11211715e-02, -3.27243214e-03, -8.17559473e-03, -4.80499398e-03,
       1.95925450e-03, -1.15047032e-02, -1.42119825e-02, -7.41802296e-03,
       -6.58137305e-03, -6.78875390e-03, -4.64291638e-03, 1.05416831e-02,
       -2.87992321e-03, -9.87760630e-03, 6.05669245e-03, -1.22453552e-02,
       -1.61187595e-03, 5.25334664e-03, 1.92532968e-02, 1.77629199e-02,
       3.92023241e-03, -7.06966082e-03, 1.20527297e-02, 5.80322649e-03,
       4.02568345e-04, 8.61684419e-03, 9.26845893e-03, -4.27641766e-03,
       -1.59085984e-03, -4.48507862e-03, 5.23080537e-03, -5.31182950e-03,
       7.09263468e-03, -1.74882989e-02, 9.89816035e-04, 1.75667237e-02,
       1.42501725e-03, 8.13019555e-03, 9.77994595e-03, -2.69669341e-03,
       1.03570186e-02, -1.62214495e-03, 2.23591668e-03, 1.27589693e-02,
       -6.99593045e-04, 1.49740977e-03, 2.14514378e-02, -9.57951322e-03,
       -1.15347151e-02, -3.81360296e-03, -1.46346986e-02,
       -9.71749239e-03, 1.39020383e-03, 4.58983559e-04, -4.53057745e-03,
       -3.64432740e-03, 2.13973178e-03, 3.93027626e-03, 3.49031202e-03,
       6.35257689e-03, -1.06508629e-02, 1.35005428e-03, 9.99710988e-03,
       3.36583675e-04, 3.49865924e-03, 2.94799131e-04, -4.91074705e-03,
       -2.37908261e-03, 3.84257687e-03, -3.73187882e-04, 1.13519058e-02,
       -1.28081981e-02, 6.06624037e-03, 1.25586474e-02, -5.13150636e-03,
       1.58370845e-02, 1.30827921e-02, 1.27100535e-02, 6.90201437e-03,
       -2.02501882e-02, -1.73559561e-02, -6.10709609e-03,
       -9.59522463e-03, -1.31738726e-02, 1.38741564e-02, 1.61761865e-02,
       6.36610715e-03, -4.71088220e-04, 1.84009667e-03, -1.68631189e-02,
       1.00557541e-03, -9.36399586e-03, 3.73110455e-03, 2.04212009e-03,
       1.40752969e-02, 1.75700616e-02, 7.01448706e-04, 1.72814727e-02,
       -9.12699755e-03, 1.21558802e-02, -2.16024509e-03, 1.24548730e-02,
       1.15434052e-02, -1.71657302e-03, 1.79795772e-02, 5.19532303e-04,
       3.41577874e-03, 8.52516200e-03, -3.57977650e-03, -7.61704147e-03,
       -4.89049358e-03, -5.73092420e-03, -7.07177492e-03, 1.14148762e-03,
       1.03465719e-02, -3.93243553e-03, -2.79917428e-03, 6.83011021e-03,
       1.94467907e-03, 2.37549618e-02, 1.35623831e-02, -4.42961557e-03,
       -9.42238793e-03, 1.88260921e-03, 1.28418962e-02, 1.16150854e-02,
       6.93538925e-03, 1.91060209e-03, 7.75229093e-03, 8.37230030e-03,
       -2.00311169e-02, -9.76216234e-03, 6.08899584e-03, -7.25359190e-03,
       1.06720002e-02, -4.30277223e-03, -7.58830970e-03, 6.06666692e-03,
       6.75953785e-03, -6.08336646e-04, -8.60992447e-03, 6.43727928e-03,
       1.86229357e-03, -1.82857346e-02, 6.11261372e-03, -9.68707900e-04,
       1.54889775e-02, 1.69493631e-02, 7.55709317e-03, -1.86415878e-03,
       -1.20406356e-02, 3.87029722e-03, -2.14522355e-03, 1.13973776e-02,
       -8.33996572e-04, 9.66768432e-03, -3.26001062e-03, -5.93714649e-03,
       -1.36753796e-02, -3.91212804e-03, 2.03141477e-03, 2.18676520e-03,
       -6.90863992e-04, -2.01945449e-03, 3.03720101e-03, 1.62982760e-04,
       2.73573352e-03, 1.17116151e-02, -4.18444257e-03, 3.04374291e-04,
       -5.77959139e-03, -2.13784128e-02, 4.99879301e-04, 1.24112861e-02,
       -8.68798699e-03, -1.36352773e-03, 6.81919884e-03, -1.41920336e-02,
       1.31067056e-02, 5.51270228e-03, 5.83153032e-03, 2.71585770e-03,
       1.52060145e-03, -6.49267901e-03, -1.13450196e-02, -1.57882678e-05,
       1.21804210e-03, -5.42754948e-04, -4.80499724e-03, -8.31712037e-03,
       -1.75802801e-02, 1.32087246e-02, -9.77403950e-03, -1.64767914e-03,
       -8.45828210e-04, -1.96018051e-02, -8.86397809e-03,
       -8.47413205e-03, 2.12829607e-03, 7.13989604e-03, 3.18042445e-03,
       -9.24289040e-03, -6.97014527e-03, -1.47509370e-02,
       -3.03435605e-03, -2.42284476e-03, -1.04083288e-02, 5.60752116e-03,
       7.71450996e-03, 1.62968393e-02, -5.36177494e-03, 7.79033406e-03,
       2.58908578e-04, 3.30153853e-03, 1.15612308e-02, 7.85056129e-03,
       4.12780512e-03, -1.05847511e-02, 4.44064708e-03, -1.38327107e-02,
       5.72375627e-03, -4.20993054e-03, 2.18815021e-02, 1.66648291e-02,
       3.77199589e-03, 5.93769504e-03, -5.89172961e-03, -2.03638840e-02,
       -5.22556074e-04, 1.44603942e-02, -5.85033558e-04, 9.06359404e-03,
       1.17765670e-03, -8.76980554e-03, -6.72246423e-03, 6.58033462e-03,
       2.29851622e-03, -5.77168074e-03, 3.41325998e-03, -8.75990931e-03,
       4.92426939e-03, 3.28334770e-03, 3.24106630e-04, -6.45903312e-03,
       -1.33456485e-02, -3.06372670e-03, 2.79396819e-03, 7.24145537e-03,
       4.38358961e-03, 5.69264917e-03, 1.40814958e-02, 8.35204404e-03,
       9.51213855e-03, 1.29862005e-04, 5.51055069e-04, -1.46995904e-03,
       -7.32420851e-03, -8.34016129e-03, -7.10815715e-04, 8.78203101e-03,
       1.50838355e-02, 2.36671753e-02, 2.62059830e-03, -5.65966265e-03,
       -1.91879447e-03, -4.29718103e-03, -1.50599249e-03, 1.10807028e-02,
       -9.40213213e-04, -1.43983448e-02, 2.76474492e-03, -3.49821802e-03,
       1.33536197e-02, 4.89217183e-03, 3.77952500e-04, 3.64747620e-03,
       -3.92034417e-03, 7.44157983e-03, 2.68757753e-02, 1.61766950e-02,
       1.09720668e-02, 2.07177317e-03, -1.65401772e-02, -6.44167792e-03,
       -9.50654037e-03, 4.27925680e-03, 8.55108816e-03, 6.84097293e-04,
       1.04320813e-02, -1.42180305e-02, -1.13022225e-02, 1.00875495e-03,
       -5.00187324e-03, 2.28573456e-02, -6.43954333e-03, -8.65987223e-03,
       -1.51275229e-02, -6.61685783e-03, 3.41977598e-03, -3.01712262e-03,
       8.40364955e-03, -8.11958686e-03, 1.03235953e-02, -1.72051776e-03,
       -7.33594783e-03, 1.25051579e-02, -3.42704426e-03, -1.24127762e-02,
       -1.60135534e-02, 7.94057851e-04, -5.25291869e-03, 1.14139970e-02,
       7.39395758e-03, -4.63563669e-03, 6.56881509e-03, -1.12547632e-02,
       1.35924970e-03, -3.72187560e-03, -1.25891238e-03, -1.98883153e-02,
       5.06761065e-03, 1.17549263e-02, 9.20313597e-03, 6.86017040e-04,
       5.38161676e-03, 1.82698444e-02, 4.97808820e-03, -1.02513824e-02,
       1.42518361e-03, 1.70192942e-02, -4.72476752e-03, 1.36029683e-02,
       3.75522464e-03, 9.27954260e-03, -3.58630763e-03, 1.00914901e-02,
       4.24496504e-03, 1.79752558e-02, 5.53533144e-04, 1.22223943e-02,
       2.42148130e-03, -1.89571793e-03, -1.62106976e-02, 1.05748931e-03,
       2.86098383e-03, -1.23507772e-02, 6.70258375e-03, 2.50850734e-03,
       -1.59883266e-03, 4.36766399e-03, -1.83338008e-03, 2.02966825e-04,
       -7.11019058e-03, 1.10923275e-02, 1.46042695e-02, 3.59352157e-02,
       5.15526044e-04, 2.28513847e-03, -2.06106924e-03, -3.00997635e-03,
       1.10614775e-02, 1.19412942e-02, 3.41928238e-03, -8.98349844e-03,
       1.07963700e-02, 2.43885033e-02, 6.61858916e-03, 1.12871053e-02,
       5.03849657e-03, 1.29843149e-02, -2.19727121e-02, 2.47458322e-03,
       -2.58648004e-02, -1.63116846e-02, -8.28105200e-04,
       -2.16808403e-03, -1.55639248e-02, -8.15253239e-03, 1.94291701e-03,
       -6.80343341e-03, 8.33827909e-03, -4.03438644e-05, 2.17452943e-02,
       1.76907293e-02, -3.94585356e-03, 6.95206830e-03, -6.23771269e-03,
       3.23323417e-03, -5.62548731e-03, 1.31208834e-03, -1.70336738e-02,
       1.61476210e-02, 1.02651566e-02, -3.48275620e-03, 2.58924812e-03,
       4.60276846e-03, -3.62280523e-03, -3.13574309e-03, 1.77149922e-02,
       6.50372263e-03, 7.24369287e-03, -1.16359128e-03, -6.25144783e-03,
       7.78851972e-04, -4.32363385e-03, -4.73743916e-04, 1.55444294e-02,
       -2.98268162e-03, 5.56031056e-03, -3.16737423e-04, 2.65920535e-03,
       6.04072819e-03, 9.91940685e-03, -1.18931504e-02, -5.54410275e-03,
       -3.71032418e-03, 7.35464366e-03, 1.70432217e-02, 9.90186166e-03,
       -5.39346971e-03, 3.51660582e-03, 1.99012738e-02, 1.82421773e-03,
       -2.17970973e-03, -5.22533944e-03, -9.82790533e-03,
       -4.84342250e-04, 7.39026535e-03, 7.05019012e-03, -8.43208656e-03,
       1.28254760e-02, -3.64627165e-04, 1.08137196e-02, 5.67580806e-03,
       5.42999851e-03, 3.20330821e-03, -5.06729586e-03, 6.58507925e-04,
       -1.22687807e-02, 3.81657563e-04, -9.85484198e-03, -3.33424122e-03,
       -8.72505270e-03, 6.32891257e-04, 6.83609908e-03, -5.94204105e-03,
       3.15216184e-03, -4.40399535e-03, 7.39331730e-03, 2.52308021e-03,
       -6.02342281e-03, -1.15021504e-02, -2.56166747e-03,
       -8.84812884e-03, -1.89383123e-02, -3.23649100e-03,
       -1.40897473e-02, -1.44921420e-02, -5.20240981e-03,
       -1.25406915e-02, -4.97367326e-03, -3.10609303e-03,
       -3.03335581e-03, -1.48796532e-02, -1.34975100e-02, 2.49675498e-03,
       1.90492328e-02, 3.76324425e-03, 1.28395455e-02, -9.56407562e-03,
       1.95625052e-02, -5.55366185e-03, 1.70390829e-02, 7.60855619e-03,
       8.89841281e-03, 2.23024879e-02, -5.39231719e-03, 4.26670816e-03,
       2.21678382e-03, 3.71301174e-03, -1.15640275e-02, -5.21646114e-04,
       -7.25350389e-03, -7.88152497e-03, 1.20465783e-02, 1.60563039e-03,
       2.80077511e-05, 3.62118706e-03, 7.47339288e-03, 3.31094139e-03,
       4.62728087e-03, 5.16491942e-03, 7.52185751e-03, -1.81494746e-03,
       7.92965293e-03, 1.34496931e-02, 1.27488757e-02, -8.39483738e-03,
       2.01265351e-03, -1.54982265e-02, -6.48176624e-03, -1.57135213e-03,
       1.97557434e-02, -1.37328813e-02, -3.70774209e-03, -5.76499477e-03,
       1.62908027e-03, -3.23576550e-03, 1.33160385e-03, -6.70847809e-03,
       -4.35821526e-03, 9.34903231e-03, -1.03140231e-02, 4.13680729e-03,
       -1.51452497e-02, -6.20990759e-03, -1.09771627e-03, 2.09629117e-03,
       -2.52678036e-03, -1.14736718e-03, -2.46541062e-03, 6.67473394e-03,
       -3.26297199e-03, 2.39109690e-03, -2.47510406e-03, 1.69166736e-02,
       9.28217918e-03, 6.37144735e-03, -4.66934824e-03, 4.68879053e-03,
       6.70401659e-03, -5.06796828e-03, 7.55571993e-03, -1.04447836e-02,
       1.25330305e-02, 4.23117876e-02, 2.48504104e-04, -1.09553691e-02,
       1.51462359e-02, -4.96207504e-03, 9.62968543e-03, -3.96873511e-04,
       1.28076198e-02, -1.08458623e-02, -8.48814007e-03, -1.10196332e-02,
       1.45656168e-02, 1.01854522e-02, 1.15555888e-02, -6.67641917e-03,
       3.49656004e-03, -1.14849070e-02, -2.14095460e-03, -2.07943749e-02,
       -7.73036852e-03, -7.41940551e-03, -7.19537865e-03,
       -1.37700941e-02, -1.76854841e-02, -7.41922017e-03, 1.59067027e-02,
       -1.00793596e-02, -5.14410494e-04, 1.37899886e-03, -1.79235172e-02,
       -4.75161662e-03, 1.29918857e-02, -4.01102379e-03, 4.69101081e-03,
       -3.31306248e-03, 7.71244231e-04, -9.67724528e-03, -6.70929300e-03,
       2.32940749e-03, 1.00217974e-02, -1.30659575e-03, 8.11851025e-03,
       -2.21368813e-04, -1.62693504e-02, -3.00509133e-03, 9.03920736e-03,
       1.72025654e-02, -2.03058450e-03, 3.81371961e-03, -1.20799313e-03,
       -6.76062284e-03, -1.54322954e-02, 1.87851069e-03, 4.59008571e-03,
       -4.41269309e-04, 1.56487543e-02, -1.16987089e-02, -3.75662668e-04,
       2.74962094e-03, 2.14888225e-03, 1.14202336e-03, 9.43090476e-04,
       -5.60200820e-03, 1.15764923e-02, -3.38935037e-03, -4.47097095e-03,
       1.68132479e-03, -1.21075101e-02, -6.03633141e-03, -7.20550865e-03,
       -2.03385251e-03, -2.01278105e-02, -1.82291064e-02,
       -8.08497518e-03, -1.02272024e-02, -1.81173552e-02, 1.33398507e-05,
       1.38995573e-02, 2.35956308e-04, 3.95520916e-03, 4.83232085e-03,
       1.05948290e-02, 3.84524581e-03, -1.75942313e-02, -4.07919614e-03,
       -1.81400217e-02, 8.49214103e-03, -9.39894654e-03, 9.94878449e-03,
       1.17760831e-02, -4.43606544e-03, -1.08773140e-02, 9.29916801e-04,
       -5.92010329e-03, -6.17312314e-03, 1.98864471e-02, -2.52967933e-03,
       -1.00042708e-02, -1.08952047e-02, 1.33829238e-02, 7.09400745e-03,
       -1.47347304e-03, -2.19222950e-03, -3.05147958e-03,
       -1.37739358e-02, -1.37211177e-02, -1.35531621e-02, 3.68355238e-03,
       2.79515665e-02, 1.58824082e-02, -9.64622665e-03, 2.57411622e-03,
       -5.45012625e-03, 5.14054904e-03, 1.72642581e-02, 2.69331550e-03,
       5.12756454e-03, -3.68297216e-03, -5.74514689e-03, 2.93601584e-03,
       -1.20788522e-03, 2.62282812e-03, -2.41048145e-03, 7.25092599e-03,
       -1.04115084e-02, -5.26224449e-03, 3.68589256e-03, -8.57639499e-03,
       -9.57026705e-03, -1.45157310e-03, -5.76084899e-03,
       -8.26797541e-03, -3.89108900e-03, -5.13482420e-03,
       -1.55681865e-02, 2.42636036e-02, 8.44496023e-03, -2.81029963e-03,
       1.40314238e-04, 6.11987943e-03, 7.34511018e-03, -3.05093359e-04,
       7.72475358e-03, 5.06263878e-03, 1.75378677e-02, 1.64604839e-02,
       1.28079522e-02, 1.63426548e-02, -5.88025339e-03, -3.92216258e-03,
       -2.49952631e-04, 2.07576435e-03, -1.81112401e-02, -3.23858316e-04,
       8.45097564e-03, 3.11789731e-03, 2.48718448e-03, -7.61989737e-03,
       -3.99208721e-03, -1.85717009e-02, -9.77684092e-03,
       -8.41923896e-03, -1.23333000e-02, -5.86475944e-03,
       -6.90466538e-03, 1.52590405e-02, -1.29829049e-02, -9.45118547e-04,
       1.75992388e-03, 1.59741938e-02, -1.18808821e-02, -4.90264455e-03,
       -5.30019961e-03, -6.83088833e-03, 1.28274402e-02, -1.75577402e-03,
       2.37841019e-03, -1.85728241e-02, -8.34383070e-03, -1.85277760e-02,
       4.15046816e-04, -1.85142532e-02, 1.00597227e-02, 1.34915102e-03,
       -4.44046408e-03, 6.98531559e-03, 4.17873758e-04, -4.00584238e-03,
       -1.51918130e-02, 5.44154271e-03, -8.01615999e-04, 4.27513383e-03,
       -9.37972963e-03, -6.68606255e-04, 2.75505311e-03, 2.00978015e-03,
       2.56874482e-03, -1.93680322e-03, 9.35789384e-03, 7.70011451e-03,
       1.63571313e-02, 8.32362752e-03, 5.11495210e-03, 1.25045320e-02,
       -1.31768938e-02, 4.32207482e-03, -1.53159432e-03, 1.14969816e-02,
       -6.28032675e-03, 6.33575663e-04, -5.79276821e-03, -9.92766931e-04,
       -9.73390881e-03, -1.99732906e-03, -8.23188853e-03, 8.40609334e-03,
       9.65028349e-03, 1.08054234e-02, -9.69889201e-03, -9.04621370e-03,
       1.07663581e-02, 5.00312075e-03, 1.29193589e-02, -2.36455031e-04,
       -1.04332417e-02, -5.48429880e-03, -2.85149575e-03,
       -8.21157172e-03, -2.11462798e-03, -2.68249772e-04, 1.20272171e-02,
       9.86209256e-04, 8.70316941e-03, 6.89010834e-03, -1.31826932e-02,
       -9.53120925e-03, -3.24311666e-03, 6.48495698e-05, 9.11340304e-03,
       -8.39847792e-03, 1.83551498e-02, -5.08718099e-03, 1.56818517e-03,
       -1.41358515e-02, 1.60477553e-02, -1.10554602e-02, -4.68452834e-03,
       2.41485555e-02, 5.19428495e-03, -2.90994975e-03, -4.84947814e-03,
       1.25721944e-02, -1.43886143e-02, 4.01553325e-03, 2.07358971e-03,
       -7.11918343e-03, -1.74214635e-02, -9.14680399e-03, 2.13213544e-02,
       2.44555883e-02, 1.24130845e-02, -7.16521079e-03, 1.26308259e-02,
       -9.97240376e-03, 6.94677932e-03, -5.05645946e-03, -6.39654277e-03,
       -4.39380482e-03, 1.52337423e-03, 8.60241894e-03, 1.21444296e-02,
       -7.08346779e-04, 1.19588533e-02, -7.05692219e-03, 8.10484588e-03,
       -1.87385199e-03, 1.64597724e-02, -7.69472867e-03, -4.41925076e-04,
       -6.70198863e-03, 1.57984365e-02, -4.67316480e-03, 9.93084162e-03,
       1.36547023e-02, -1.88009988e-03, 1.32446727e-02, -1.23197921e-02,
       -9.53623466e-03, -2.60098348e-03, 9.61554889e-03, -3.88315972e-03,
       1.04239881e-02, -4.54781484e-03, -8.79175868e-03, -2.87458068e-03,
       -1.09898951e-02, 5.85783552e-03, 1.38628529e-02, 6.93811011e-03,
       7.53627578e-03, 3.54994740e-03, 1.91312167e-03, 4.45232587e-03,
       6.01828331e-03, -2.05286057e-03, 1.80823468e-02, -2.14940254e-02,
       -4.55055293e-03, -4.07808460e-03, -5.71610464e-04,
       -9.50359646e-03, -3.90317617e-03, 3.50143900e-03, 6.06126431e-03,
       -3.80642526e-03, 8.04321095e-03, -4.85866191e-03, -1.35146314e-03,
       -7.87694938e-03, -6.10314915e-03, 8.13202001e-04, 1.78480195e-03,
       2.49587558e-03, 2.52445154e-02, -1.24052297e-02, 1.28019620e-02,
       5.15909726e-03, 9.33760125e-03, 1.26086809e-02, 2.08856259e-02,
       1.49459555e-03, 8.15447699e-03, 7.89523590e-03, -5.02741616e-03,
       -2.13995911e-02, 1.08204540e-02, -3.41178267e-03, 1.25675148e-03,
       1.20373741e-02, -7.79481884e-03, -7.12119183e-03, 7.03681540e-03,
       3.33525008e-03, 2.18714029e-03, -8.10531620e-03, -4.18662140e-03,
       1.17070600e-03, -2.81630637e-04, -5.92582021e-03, 7.78628280e-03,
       1.65181290e-02, -3.94674251e-03, -9.69704892e-03, 3.28004779e-03,
       -3.70157720e-03, -1.32033965e-02, -5.29237930e-03, 3.54667078e-03,
       -2.44842190e-03, -6.40169485e-03, 1.14614330e-02, 4.28323634e-03,
       -9.61413383e-01 ]
