%YAML:1.0
---
myHogDector: !!opencv-object-detector-hog
   winSize: [ 64, 128 ]
   blockSize: [ 16, 16 ]
   blockStride: [ 8, 8 ]
   cellSize: [ 8, 8 ]
   nbins: 9
   derivAperture: 1
   winSigma: 4.
   histogramNormType: 0
   L2HysThreshold: 2.0000000000000001e-01
   gammaCorrection: 1
   nlevels: 64
   signedGradient: 0
   SVMDetector: [ -1.03803547e-02, 1.45522067e-02, -1.80938952e-02,
       1.33665670e-02, 6.56389352e-03, 1.07276905e-03, 2.87710503e-02,
       6.44189445e-03, -5.07420814e-03, 6.62598945e-03, -1.36000477e-02,
       -3.25837620e-02, -1.74429398e-02, -2.52834130e-02,
       -2.51924787e-02, 1.35392155e-02, -9.25494637e-03, -6.53325929e-04,
       -2.94876508e-02, -2.81798728e-02, -3.15881930e-02, 3.76514997e-03,
       9.60081909e-03, 5.87334633e-02, 5.35755716e-02, 2.12468971e-02,
       -2.11615302e-02, -2.68274862e-02, -3.63338254e-02,
       -3.47801410e-02, -7.07288226e-03, -2.24193651e-02, 9.43699665e-03,
       2.44968422e-02, 1.07914638e-02, -2.61450373e-02, -5.66421170e-03,
       -1.57088619e-02, -1.94977745e-02, 2.84751621e-03, -3.59215848e-02,
       -2.50049345e-02, 1.67993307e-02, -1.65343154e-02, -5.44427335e-03,
       -2.57020984e-02, -6.06464222e-03, -2.42874250e-02, 1.13580208e-02,
       -5.07963030e-03, 1.44599732e-02, 1.80175230e-02, -3.70347798e-02,
       -2.86113322e-02, -1.39160119e-02, -2.00610664e-02,
       -1.48985749e-02, 4.32597846e-03, -8.06421228e-03, 1.19701365e-03,
       2.65086330e-02, -1.24997254e-02, -1.14400284e-02, -2.78408695e-02,
       -1.89923849e-02, 1.26977405e-03, -6.06127549e-03, -1.27871875e-02,
       3.75622623e-02, 2.86237728e-02, -4.21778765e-03, -4.79421299e-03,
       -1.03061190e-02, -3.54823715e-05, -7.36296177e-03,
       -1.74460411e-02, 4.52271616e-03, -4.50743595e-03, -1.47525324e-02,
       -3.50548513e-02, -3.57999206e-02, -8.08345806e-03,
       -2.06079073e-02, -1.92828849e-02, -4.09990810e-02, 3.66494665e-03,
       2.45139394e-02, -5.19668404e-03, -2.12018453e-02, -7.92970881e-04,
       -1.96495615e-02, 4.53551504e-04, 1.11215524e-02, 8.68862681e-03,
       -4.93654283e-03, 1.94615200e-02, 1.51885003e-02, 1.00511489e-02,
       -1.25083551e-02, -3.25662317e-03, -8.39022221e-04, 9.49400757e-03,
       -1.07415661e-03, -5.51443780e-03, 1.37194910e-03, -9.58050415e-03,
       -3.01055703e-03, -1.89199224e-02, -2.48617306e-03,
       -9.50940046e-03, 6.78481068e-03, -3.91596276e-03, -1.34495515e-02,
       5.33896033e-03, -1.11203287e-02, -2.86840498e-02, -6.12904271e-03,
       -8.09183903e-03, 1.38402432e-02, 3.39610390e-02, 4.95765656e-02,
       1.10462951e-02, -4.16908786e-03, -5.39789349e-03, -2.39907186e-02,
       -1.21639241e-02, -1.82755720e-02, -2.53315724e-04, 2.41920520e-02,
       1.21955108e-02, 4.30045929e-03, 1.18022887e-02, -8.01023655e-03,
       -5.95841510e-03, -3.11677195e-02, -1.49424057e-02, 6.25115959e-03,
       3.22528519e-02, 3.25093269e-02, 1.94609985e-02, 2.42964216e-02,
       1.45308650e-03, -3.95253999e-04, -1.32559976e-02, -1.04545681e-02,
       1.02590583e-02, 1.85487978e-02, 1.42821865e-02, -2.68435087e-02,
       -2.02176869e-02, -2.32118536e-02, -1.65573023e-02,
       -4.68943175e-03, -1.19664250e-02, 6.25227718e-03, 2.02000104e-02,
       6.81458926e-03, 1.74137205e-02, 2.79741697e-02, 1.79065112e-02,
       2.47096806e-03, -1.95972379e-02, -1.29697695e-02, -5.61381783e-03,
       6.32203324e-03, 1.41301034e-02, -3.26595716e-02, -7.86940195e-03,
       1.90856855e-03, -1.19085917e-02, -1.92294754e-02, -9.80124250e-03,
       -1.04760770e-02, 1.90065037e-02, 3.53184678e-02, 4.70229471e-03,
       2.47567464e-02, 2.63660084e-02, 9.17553995e-03, 1.82739217e-02,
       7.16647273e-03, 1.13922739e-02, 1.50457779e-02, -4.86596581e-03,
       5.54796366e-04, -7.45000457e-03, 3.39248381e-03, 3.75054590e-03,
       -1.09288683e-02, 1.41288340e-02, 1.16094891e-02, 1.40876975e-02,
       9.44475830e-03, 1.23845823e-02, 3.47096496e-03, 4.41551954e-02,
       2.41956152e-02, -5.59917279e-03, -4.53657238e-03, 2.19305488e-03,
       7.88950478e-04, -2.33505145e-02, -3.64063866e-02, -2.42815055e-02,
       1.04807620e-03, -1.47431297e-02, -3.72340158e-03, -7.27438694e-03,
       2.03432795e-02, 1.31306257e-02, 5.87512413e-03, 4.46065003e-03,
       -1.41208048e-03, 1.91825889e-02, -5.58981148e-04, -1.24349687e-02,
       -2.85745598e-03, -9.64380335e-03, -3.17760487e-03,
       -3.44101456e-03, -3.26148942e-02, -8.78809893e-04, 2.43959147e-02,
       3.25921960e-02, -2.79387571e-02, -3.13799754e-02, -5.70506975e-02,
       -2.08101850e-02, 1.85826968e-03, 1.05329882e-02, -1.66695379e-02,
       3.30109596e-02, 4.97293249e-02, -1.75976977e-02, -5.75387850e-03,
       5.55907609e-03, 2.20880192e-02, 1.74444821e-02, -1.62645336e-02,
       -1.17008155e-02, -2.43217824e-03, -2.14730832e-03,
       -9.82800871e-03, -7.58769736e-03, -2.08404530e-02, 1.09879412e-02,
       2.97784805e-02, 1.92406867e-02, -6.80292840e-04, 2.31820382e-02,
       1.89798716e-02, -4.04745154e-03, -1.43028609e-02, -5.37825637e-02,
       6.60375739e-03, 3.11275963e-02, 2.95482087e-03, -3.36557105e-02,
       3.57354060e-02, 5.13437688e-02, 1.55398203e-02, -1.08248731e-02,
       -1.46954367e-02, 1.68277156e-02, 8.60470813e-03, -1.58056598e-02,
       -1.30312294e-02, 4.16080467e-02, 2.36711409e-02, 1.32198475e-04,
       1.53758680e-03, -2.16665007e-02, 2.93478346e-03, 2.86886822e-02,
       1.26454635e-02, -1.64963268e-02, 3.98531498e-04, 3.22714038e-02,
       1.91029441e-02, 5.47569571e-03, -2.36400915e-03, 1.13652349e-02,
       -6.99983118e-03, 1.28420833e-02, 7.59315724e-03, 2.75830235e-02,
       1.97475273e-02, 1.67071708e-02, -3.01806070e-03, 1.50557393e-02,
       7.94816110e-03, -1.15805138e-02, -1.28815304e-02, 7.59980502e-03,
       3.32118608e-02, 7.74121704e-03, -1.09929815e-02, 1.27313391e-03,
       2.02830993e-02, 1.74806993e-02, -1.03763994e-02, 4.97071212e-03,
       3.66802067e-02, -6.68439595e-03, -1.24434158e-02, 3.54621001e-03,
       -5.30330883e-03, -5.07403491e-03, 7.84294680e-03, 5.79739746e-04,
       4.61303256e-03, 5.63918659e-03, -3.00957891e-03, -1.84880588e-02,
       3.75162868e-04, -3.58378701e-02, -5.59596764e-03, 2.40736883e-02,
       1.43519891e-02, 1.44440979e-02, 1.90554094e-02, -2.52988539e-03,
       -1.98989082e-02, -6.64772140e-03, -1.37206784e-03, 7.42954528e-03,
       3.20247957e-03, -2.54280679e-02, -4.45236973e-02, -2.29090769e-02,
       -4.61536460e-02, -2.16595232e-02, -5.35694323e-03, 1.17376605e-02,
       1.81696620e-02, 2.35018339e-02, -1.56180467e-02, -2.12550387e-02,
       1.50665352e-02, -1.10840984e-02, -1.82018299e-02, -4.71562846e-04,
       -2.60490682e-02, -6.34034304e-03, -2.06852634e-03,
       -7.29326718e-03, 5.96030033e-04, 1.03823394e-02, -7.85229262e-03,
       -2.71061547e-02, -1.14406226e-02, 9.77987517e-03, 2.27086954e-02,
       1.52176628e-02, 1.90557297e-02, 8.02173838e-03, 1.64259486e-02,
       1.71677399e-04, -7.59203732e-03, -4.17137606e-04, 1.37392934e-02,
       2.22304072e-02, 3.74528505e-02, -7.65783014e-03, -4.73551489e-02,
       1.41805876e-02, 6.38825214e-03, -1.08199343e-02, 6.91179186e-03,
       -4.38353233e-03, 1.84031911e-02, 4.02730070e-02, 1.82773247e-02,
       -2.27192938e-02, -1.55320494e-02, 7.37784649e-05, -2.00564768e-02,
       -2.59497855e-02, 7.72496965e-03, 2.79545356e-02, 1.97996106e-02,
       -9.49838571e-03, -2.80497596e-02, -5.96776791e-03, 4.96711070e-03,
       5.99797675e-03, 4.48396167e-04, 2.62558198e-04, 1.16329305e-02,
       1.72171257e-02, -3.42287379e-03, -1.36398058e-02, -1.60854997e-03,
       1.21707283e-02, -1.07979728e-03, -1.72894020e-02, -6.35019364e-03,
       2.56300271e-02, 2.76025124e-02, -6.50030281e-03, -2.06124242e-02,
       -1.94860455e-02, 1.46228913e-02, -1.02850646e-02, -3.51291373e-02,
       2.65903547e-02, 3.05204596e-02, 1.41289514e-02, -2.39902735e-02,
       -3.19134928e-02, 3.39464797e-03, 4.13544439e-02, 1.36022000e-02,
       1.02049029e-02, -1.64958835e-02, 1.37296570e-02, 1.11340750e-02,
       -3.41591462e-02, -3.44688036e-02, -2.45258864e-03, 2.82634124e-02,
       6.65167207e-03, -1.64019633e-02, 7.93835521e-03, 2.53226962e-02,
       1.93487443e-02, -2.21624486e-02, -5.69605222e-03, 1.87400524e-02,
       2.46701092e-02, 1.45538207e-02, 8.52283742e-03, 1.99746359e-02,
       1.09603964e-02, -1.14802103e-02, -5.69011755e-02, -8.59541353e-03,
       3.80762969e-03, 2.13734955e-02, 2.30218973e-02, 1.79025847e-02,
       -3.69678531e-03, -2.74870836e-04, 1.48179103e-03, -2.06072461e-02,
       1.98208615e-02, 1.67943316e-03, 1.27497083e-02, 2.66298968e-02,
       2.89672497e-03, -2.43770191e-03, -1.21729192e-03, 2.03842372e-02,
       -1.33292815e-02, -1.34684751e-02, 6.16275985e-03, -2.95388140e-03,
       5.57652209e-03, 1.13475812e-03, -9.25707072e-03, 2.23937957e-03,
       3.04617956e-02, -1.07809184e-02, -4.06042812e-03, 5.98129677e-03,
       -6.20030798e-03, 1.81915518e-03, 1.06543740e-02, -1.35566527e-02,
       -7.48108514e-03, 1.85736583e-03, -7.14917388e-03, -6.17343886e-03,
       2.34414674e-02, -1.63516644e-02, 1.21059213e-02, -6.65894384e-03,
       -2.10630391e-02, 1.14807468e-02, 1.65012777e-02, -1.18030449e-02,
       -7.44429417e-03, -1.79987925e-03, -1.55779510e-03,
       -2.42232997e-03, -1.94139518e-02, -7.08786584e-03, 8.77942424e-03,
       1.82343107e-02, 1.38234971e-02, -1.85782015e-02, 7.57292658e-03,
       -3.67803127e-02, -2.26525515e-02, -6.40382431e-03,
       -9.47878044e-03, 2.18417384e-02, 1.51283676e-02, 1.97885465e-02,
       3.45830049e-04, 6.73096813e-03, -3.13835256e-02, -2.73450054e-02,
       -3.89116770e-03, -1.86984912e-02, 1.39500508e-02, 1.65735893e-02,
       9.81788710e-03, -1.63479000e-02, 1.67015102e-02, 1.23981321e-02,
       2.03291252e-02, -2.73010740e-03, -2.04140600e-02, 1.43513996e-02,
       -9.56048258e-04, -3.10858898e-02, -1.68615580e-03,
       -1.80608612e-02, 1.56232128e-02, 2.31993422e-02, -1.51956249e-02,
       -1.46969492e-02, 4.84687416e-03, 1.19039947e-02, 3.66617590e-02,
       -2.53751110e-02, 3.19043435e-02, -1.04915921e-03, 1.54288288e-03,
       -6.60062127e-04, -9.50557645e-03, -1.41503301e-03, 1.96766127e-02,
       3.06384228e-02, -9.73101240e-03, 1.96163319e-02, 1.67114604e-02,
       1.62018538e-02, -1.58298705e-02, -4.73918505e-02, -3.87579836e-02,
       -4.32410315e-02, -6.13340596e-03, -4.78775520e-03, 5.17522506e-02,
       5.15331887e-02, 2.49123462e-02, -2.18091644e-02, -4.10201438e-02,
       -1.59742534e-02, -3.69954146e-02, -1.48994001e-02,
       -2.36506239e-02, -1.55978359e-03, 4.03334051e-02, 7.86352716e-03,
       -4.27567549e-02, -3.24134268e-02, -2.14975365e-02,
       -2.43035145e-02, 1.49123464e-02, 2.74540950e-03, 2.27972157e-02,
       8.31963122e-03, 6.57922123e-03, -2.87900344e-02, -3.24309543e-02,
       -5.03655616e-03, -6.97383657e-03, 5.75835118e-03, -1.03942994e-02,
       1.72413774e-02, 3.39804664e-02, 1.00387838e-02, -2.79752277e-02,
       -2.64781378e-02, -7.23729655e-03, -2.18484234e-02,
       -2.58217733e-02, -2.29680110e-02, 6.89071463e-03, 2.36660354e-02,
       -7.56445155e-03, -3.51251103e-02, -4.01558317e-02,
       -1.01923486e-02, -1.17005606e-03, 3.71120940e-03, -7.82250054e-03,
       2.62234174e-02, -6.01246580e-03, 3.41972336e-03, -2.20945850e-02,
       4.18580091e-03, 2.79341848e-03, -1.79894716e-02, -2.24177074e-02,
       -1.95706747e-02, 1.21037299e-02, 3.20771821e-02, 9.55720432e-03,
       -1.78328976e-02, -1.26761077e-02, 9.05650202e-03, -1.17727201e-02,
       1.79783832e-02, -2.41024215e-02, 2.52237786e-02, 3.06411623e-03,
       1.10770715e-02, -1.86481271e-02, -3.07256188e-02, -9.10608191e-03,
       -1.28071522e-02, -4.20992263e-03, -1.61516573e-02, 1.48764076e-02,
       -1.76052283e-02, 1.11488635e-02, -8.51120893e-03, -1.56173361e-02,
       -9.56625585e-03, -5.27090579e-03, -5.42369417e-05,
       -2.61856448e-02, -2.60747597e-02, -1.03895552e-02,
       -3.04760807e-03, -1.84271056e-02, -1.16888424e-02,
       -2.14681798e-03, -1.60813760e-02, 9.60268825e-03, -2.87537575e-02,
       -3.66913341e-03, -1.79031212e-02, 1.10705299e-02, 4.52008238e-03,
       -1.00651039e-02, -2.03718711e-02, -4.07502009e-03, 9.08857677e-03,
       -2.82836333e-02, -1.99669804e-02, -8.51916522e-03, 3.94954579e-03,
       -1.24699611e-03, -2.36080270e-02, 4.24489658e-03, 9.94712021e-03,
       2.52679153e-03, -4.73634899e-02, -9.96323768e-03, -1.67969912e-02,
       -6.40826300e-03, -3.43566351e-02, -5.37142809e-03,
       -2.14552204e-03, -1.93300769e-02, -1.85850449e-02,
       -7.16931745e-03, 1.80030763e-02, 5.74903702e-03, -8.59497406e-04,
       -5.10352338e-03, -1.66490220e-03, 1.04815755e-02, 4.79747355e-03,
       8.06881022e-03, -2.87796780e-02, -8.36221408e-03, 1.43299170e-03,
       -9.29563958e-03, -1.33764150e-03, 1.46227852e-02, 3.42264548e-02,
       -4.57517197e-03, -2.16762386e-02, 2.52168383e-02, 4.23193425e-02,
       2.26971768e-02, 3.92591720e-03, 1.74784288e-02, -1.66115090e-02,
       -1.55978054e-02, -2.08743066e-02, -2.44255494e-02,
       -3.45192477e-02, -1.28377043e-02, 1.67830959e-02, -6.08917186e-03,
       -8.29669274e-03, -2.75376011e-02, -1.44883702e-02,
       -4.00558487e-03, 4.01747500e-04, -1.54766981e-02, 3.16212978e-03,
       2.09246725e-02, -1.34238917e-02, -7.47749722e-03, 1.90020055e-02,
       2.41460674e-03, -1.22200474e-02, -3.58507000e-02, 9.54734813e-03,
       1.40781526e-03, 2.86009572e-02, 2.17029266e-03, 3.41775790e-02,
       -7.62145175e-03, -3.80561640e-03, 7.20976293e-03, -5.55112492e-03,
       4.33718413e-02, 1.55449659e-02, 1.98227353e-02, -2.96912156e-02,
       8.44379701e-03, -9.87872668e-03, 6.51113084e-03, -3.23989778e-03,
       -2.66180169e-02, -5.69156483e-02, -3.37915048e-02,
       -6.44312752e-03, -1.70274433e-02, -6.64872443e-03,
       -2.29675435e-02, -2.16984353e-03, -1.22501096e-03,
       -1.93628538e-02, 1.61284732e-03, 1.26209529e-02, 3.62469186e-03,
       3.58555280e-03, -6.89534610e-03, 3.30246077e-03, 4.04981052e-04,
       -8.53889869e-05, 1.20093394e-02, 2.15480812e-02, -2.40083761e-03,
       -2.11826116e-02, -2.16287728e-02, 4.41945950e-03, -1.06370985e-03,
       -2.39475071e-02, 1.13264630e-02, 2.26921476e-02, 3.83405685e-02,
       1.75531507e-02, -4.95405914e-03, 3.00358273e-02, 9.27794445e-03,
       -8.01249035e-03, 8.83947778e-03, 2.09899247e-02, 1.74598803e-03,
       -3.17475200e-02, 9.52342525e-03, -4.15077545e-02, -2.28829477e-02,
       -6.79595722e-03, -1.51771388e-03, -1.51156457e-02, 1.31883016e-02,
       2.83662062e-02, -1.49537856e-02, -9.93747264e-03, -2.00762302e-02,
       -2.09600013e-02, -6.78150030e-03, 1.01448875e-02, -1.55395363e-02,
       -1.66159812e-02, 2.97726598e-03, -1.55361472e-02, -2.47367215e-03,
       -2.40879972e-02, -7.62043567e-03, -6.05133083e-03, 1.44501058e-02,
       4.21200553e-03, 1.04624182e-02, 2.29968280e-02, -1.91238411e-02,
       -1.39769316e-02, -2.11152248e-02, -1.63940322e-02,
       -7.80763989e-03, 8.02827906e-03, -2.14253906e-02, -5.49239526e-03,
       4.46177693e-03, -6.59255590e-03, -1.41989943e-02, -2.52302289e-02,
       6.55636052e-03, 1.26439175e-02, -1.26016941e-02, -2.18155161e-02,
       -1.26328953e-02, -1.42978039e-02, 2.81388662e-03, 3.08752363e-03,
       -1.59571748e-02, 4.33648098e-03, 7.68146012e-03, 1.67336054e-02,
       -5.92914131e-03, -4.51995013e-03, 1.12727396e-02, -2.33816355e-02,
       -6.50627818e-03, -1.14831189e-02, 1.34843346e-02, -1.56661146e-03,
       -1.34943714e-02, -1.76768061e-02, 5.60023868e-03, -3.07908654e-03,
       7.90501200e-03, 3.13291810e-02, -4.63290187e-03, 1.41915707e-02,
       1.21417474e-02, -2.30044778e-02, -2.74146646e-02, -6.96391659e-03,
       -3.74085444e-04, -2.73348652e-02, -1.98380761e-02,
       -2.57556532e-02, -2.15116255e-02, -1.03003858e-02,
       -1.47282742e-02, -3.44486386e-02, -2.05807644e-03,
       -3.49351067e-05, -1.66862998e-02, -6.06694352e-03,
       -9.19665862e-03, -2.26234049e-02, -1.64764766e-02, 1.62170809e-02,
       -4.34427708e-03, 2.52440176e-03, -1.08932285e-02, -1.41574405e-02,
       1.12272212e-02, -4.89189290e-03, 2.28611496e-03, 2.56095058e-03,
       3.14418301e-02, -1.66057870e-02, 6.34573400e-03, 7.44154537e-03,
       -2.84491889e-02, 2.92844791e-03, 1.54518066e-02, 1.86884794e-02,
       1.09064886e-02, -9.63808876e-03, -1.96105540e-02, -1.96149983e-02,
       -1.18548237e-02, -2.07985565e-02, -2.14491282e-02,
       -6.22210745e-03, -5.61411399e-03, -1.86982043e-02,
       -1.10813556e-02, -1.31257633e-02, -1.52982594e-02,
       -3.70587513e-04, -6.86520804e-03, -7.99464714e-03,
       -1.41935982e-02, 4.16145194e-03, -4.45000315e-03, -5.07196528e-04,
       -2.46824920e-02, -2.03397404e-02, -5.07335877e-03,
       -1.88911390e-02, -3.74703370e-02, 2.88504205e-04, 1.61525104e-02,
       2.44341642e-02, -3.08439806e-02, -9.01754200e-03, -2.43575796e-02,
       7.68340076e-04, -6.12317061e-04, 1.47474548e-02, 1.13585088e-02,
       2.79252902e-02, 1.45443603e-02, -5.11103729e-03, -2.89505231e-04,
       -2.08131992e-03, -7.05963932e-03, -1.89894699e-02,
       -1.83730554e-02, -3.11911628e-02, 8.48112442e-03, 2.80358276e-04,
       6.65961881e-04, -6.89733587e-03, -1.83821991e-02, -2.54391041e-03,
       -1.68443397e-02, 1.20646495e-03, 6.64795167e-04, -1.11697456e-02,
       -4.64845775e-03, -1.22932978e-02, 1.01422267e-02, -1.67838689e-02,
       -1.35050071e-02, -6.46497868e-03, 5.35406312e-03, -1.79645959e-02,
       4.78886301e-04, -1.58026535e-02, -8.49750172e-03, -1.32751763e-02,
       -3.36680152e-02, -4.16561030e-03, 1.34263420e-03, 4.32768799e-02,
       8.51681549e-03, -9.05775558e-03, 2.91101635e-03, -2.05613561e-02,
       3.80787859e-03, -7.94077851e-03, -1.69115476e-02, -4.57712933e-02,
       6.29090192e-03, 1.29288118e-02, -2.15205010e-02, -2.22312454e-02,
       -2.37549860e-02, 2.15942394e-02, 1.83375143e-02, -1.70731905e-03,
       -2.13372409e-02, -4.77413385e-04, -3.14377830e-03,
       -9.05258348e-04, -2.10822895e-02, -2.16101315e-02,
       -1.02433879e-02, -2.38031112e-02, -2.07623225e-02,
       -2.80015767e-02, 3.25776674e-02, 2.20456235e-02, -4.98378742e-03,
       3.94649478e-03, -3.08277700e-02, 2.50253305e-02, 1.69382263e-02,
       1.57134719e-02, -4.06887941e-02, -1.71931013e-02, 3.70549504e-03,
       1.37094399e-02, -2.23954860e-02, -1.54701741e-02, 1.32573517e-02,
       1.90273970e-02, 8.05168133e-03, -1.40750622e-02, -2.90933624e-03,
       4.10491787e-03, 3.48693170e-02, -1.30761955e-02, -2.52710097e-02,
       1.67975505e-03, -1.13396521e-03, -2.51104794e-02, -1.17192678e-02,
       -1.83626562e-02, -4.69530653e-03, 2.74820440e-02, -9.85148922e-03,
       -3.99410203e-02, 3.31727192e-02, 1.68360583e-02, 1.84491221e-02,
       -1.83982700e-02, -1.91232059e-02, -1.05314262e-04, 2.16846764e-02,
       -3.86668071e-02, -1.39357382e-02, 2.53062006e-02, 5.78325288e-03,
       1.48034450e-02, -1.91423651e-02, -8.60937219e-03, -1.24046011e-02,
       4.01003090e-05, -3.55294906e-02, -1.20701035e-02, 2.22645253e-02,
       1.42967021e-02, 8.92837811e-03, -1.59839112e-02, -2.23520231e-02,
       -4.43454795e-02, -1.85629207e-04, -1.93575509e-02,
       -1.10427812e-02, -5.36489114e-03, -9.43817571e-03, 9.55611095e-03,
       1.37241390e-02, -2.51854472e-02, -4.76372838e-02, -3.42542641e-02,
       -2.10122634e-02, -1.95088927e-02, 1.75352003e-02, 1.19157527e-02,
       1.55613767e-02, -2.74234125e-03, -2.10967157e-02, -2.49458570e-02,
       -1.78951193e-02, -3.27352658e-02, -1.32544748e-02, 1.27618285e-02,
       1.36343762e-02, 1.25834986e-03, 4.54635844e-02, -1.70422457e-02,
       -2.84374412e-02, -3.08903698e-02, -2.73315180e-02,
       -7.19245290e-03, -2.41454579e-02, 1.00393705e-02, 2.97075883e-02,
       -1.15846153e-02, 7.20689446e-03, -1.52419098e-02, -3.00812665e-02,
       -7.66438385e-03, -3.20647750e-03, -2.54224241e-02, 2.14304961e-02,
       1.83137823e-02, -1.37639726e-02, 1.93270799e-02, -2.51182751e-03,
       -1.08393766e-02, -2.58695949e-02, -3.69491684e-03,
       -1.06426617e-02, 3.23202321e-03, 2.57340609e-03, -8.15277640e-03,
       -6.73502311e-03, -5.98494569e-03, -1.07060149e-02, 6.06925879e-03,
       -1.25957159e-02, -3.36042643e-02, 1.30882282e-02, -2.71073859e-02,
       -5.17838541e-03, 1.32614579e-02, 2.24890988e-02, 1.55043388e-02,
       1.07211471e-02, -1.93146262e-02, -9.71875561e-04, 9.46500339e-03,
       1.26515469e-02, -6.83738897e-03, -2.03677695e-02, -5.82717999e-04,
       6.15798694e-04, -5.49669785e-04, -2.17508469e-02, -9.63831600e-03,
       4.51161177e-04, -3.40023846e-03, 1.60556566e-03, -7.80966925e-03,
       -1.09604038e-02, -4.75288834e-03, -1.51671534e-02,
       -1.81429852e-02, 2.33848928e-04, -1.05265444e-02, 1.09664528e-02,
       1.18648796e-03, 1.01486724e-02, 1.38400588e-02, -5.82381268e-04,
       4.75749746e-03, 4.28974256e-03, 1.01031102e-02, 6.50672568e-03,
       -1.12423301e-02, 5.66127710e-03, -1.57625042e-02, -8.53302889e-03,
       -7.38277752e-03, 8.38887598e-03, 8.47848970e-03, 5.19673526e-03,
       -1.39820129e-02, -2.48225294e-02, -2.52280347e-02,
       -1.45568075e-02, 1.51817733e-03, -1.21750999e-02, 8.43443268e-05,
       2.87496904e-03, 4.39629378e-03, -3.40802036e-02, -1.04057994e-02,
       -2.30807606e-02, 1.22981763e-03, -4.48202575e-03, 2.14689691e-03,
       -1.97161417e-02, 1.99465966e-03, -3.90034844e-03, -6.15560031e-03,
       -1.42347431e-02, -3.07552260e-03, -2.42536068e-02,
       -1.92077197e-02, -1.74750835e-02, -7.57511798e-03,
       -1.63535383e-02, 2.52423203e-03, -2.49166805e-02, -5.16948197e-03,
       1.68208182e-02, -5.37315710e-03, -1.35778124e-02, 1.39068885e-04,
       -2.39547789e-02, 3.01109743e-03, 2.63350015e-03, -1.42299822e-02,
       -1.55686280e-02, -5.01415543e-02, -8.26035161e-03, 3.65765020e-03,
       2.31742095e-02, -1.13922590e-02, -2.52364837e-02, -3.89658883e-02,
       -1.57355294e-02, -1.39201963e-02, -5.86503595e-02,
       -2.58206464e-02, 4.59260214e-03, 1.37911206e-02, -1.46280872e-02,
       -3.51892761e-03, 5.56460768e-03, -1.19270300e-02, -1.86559930e-02,
       -1.54818706e-02, -5.95899764e-03, 9.68587864e-03, 1.89560559e-02,
       -1.72592998e-02, -1.67389736e-02, -1.30223585e-02,
       -1.47966295e-02, 2.75150430e-03, 1.45540375e-03, -5.02095092e-03,
       2.54763439e-02, 1.88468769e-02, -1.95098985e-02, -2.17861999e-02,
       -4.30460600e-03, -1.99937401e-03, 1.35391485e-02, -2.17621848e-02,
       -3.98786776e-02, -3.07959504e-03, -1.37466216e-03,
       -2.45508756e-02, 2.16171294e-02, 2.13046302e-03, -1.19291069e-02,
       -1.47320870e-02, 9.97432135e-03, -3.25790956e-03, -9.63804405e-03,
       3.35799367e-03, -7.29980180e-03, -2.83346921e-02, 2.57502962e-03,
       -1.56758316e-02, 7.58452062e-03, 7.57715572e-03, -4.51485300e-03,
       2.72459649e-02, 6.56219479e-03, -2.73123421e-02, -2.45456453e-02,
       -7.32711237e-03, 3.03587323e-04, 8.83912388e-03, 3.75062972e-03,
       -1.96281751e-03, 7.18202209e-03, 2.13736147e-02, -6.67158701e-03,
       1.65361986e-02, -4.25189547e-03, -1.91336218e-02, -3.35238166e-02,
       -2.77125984e-02, -5.69351856e-03, 1.63898524e-02, 9.58233431e-05,
       4.26530838e-03, -9.93500557e-03, 8.38048465e-04, -2.27272082e-02,
       -7.60594755e-03, 2.03725044e-02, 2.77212635e-02, 3.84477986e-04,
       -1.07825473e-02, -1.27674704e-02, -1.45988390e-02,
       -3.26779708e-02, -1.52010368e-02, -1.15983002e-02,
       -8.79554916e-03, 4.61148750e-03, -3.55180516e-03, 1.10291354e-02,
       -7.77237257e-03, 2.78701889e-03, 9.72390524e-04, -1.39869042e-02,
       1.49981044e-02, -6.64773490e-03, 5.38894601e-05, 1.07963355e-02,
       -1.78932911e-03, 2.91131856e-03, 5.24984114e-03, -6.46993099e-03,
       -2.40049437e-02, 4.38639475e-03, -2.56776381e-02, -1.23603232e-02,
       -4.18175608e-02, -9.19750147e-03, 5.75656258e-03, 2.00769603e-02,
       -1.32057024e-02, -1.56203015e-02, 8.83534458e-03, -1.39600234e-02,
       -3.44005115e-02, -1.68874264e-02, 1.90096609e-02, 2.43804902e-02,
       6.38100365e-03, 1.67107638e-02, -2.96001998e-03, 1.93873560e-03,
       -3.56450304e-02, -3.49028073e-02, -7.50786159e-03,
       -2.17129267e-03, 1.15280483e-04, 2.02866714e-03, 9.65630170e-03,
       6.76603056e-03, 1.63600948e-02, 1.21324090e-02, -2.68575903e-02,
       1.84426401e-02, 1.78874750e-02, 1.89122595e-02, 2.23939940e-02,
       -1.94117539e-02, -3.76051031e-02, -5.64304972e-03,
       -1.94399189e-02, -2.03571543e-02, -1.31535428e-02,
       -1.48375938e-02, 7.06339302e-03, 8.30077287e-03, -1.01074670e-02,
       -1.20954486e-02, -3.91119858e-03, -2.20546592e-02,
       -1.41924769e-02, -2.25958079e-02, -8.52831453e-03, 6.16642740e-03,
       9.28646419e-03, -1.38261830e-02, -2.94741280e-02, -3.74719594e-03,
       7.61251198e-04, -6.92213373e-03, 1.06593920e-02, -1.87962260e-02,
       8.90737586e-03, 1.51146352e-02, -7.70861190e-03, -4.53116512e-03,
       1.57725215e-02, 1.73667576e-02, 6.53781369e-03, -2.05039093e-03,
       -6.77974662e-03, 1.83850862e-02, 1.10260518e-02, 7.29815743e-04,
       -2.37850100e-03, -1.85471738e-03, -4.49407510e-02,
       -1.11272968e-02, -1.31547516e-02, 7.92274904e-03, 3.24878469e-03,
       -1.82888075e-03, -4.58655786e-03, 1.08701289e-02, 7.24747404e-03,
       -2.80946773e-03, 1.66837741e-02, -9.14248079e-03, -1.13362549e-02,
       -1.14730047e-02, -5.14528807e-03, 6.13775710e-03, 1.50612015e-02,
       2.25282125e-02, -1.58113148e-02, 2.60654907e-03, -1.07191978e-02,
       1.66152027e-02, 5.28513547e-03, -2.25552935e-02, 1.32541554e-02,
       3.17352712e-02, 4.64362577e-02, 1.59709789e-02, 2.15840526e-02,
       3.24673839e-02, 8.66820011e-03, -1.79555528e-02, 6.05724100e-03,
       -7.53120927e-04, 8.83672014e-03, -9.92652401e-03, -3.49519961e-02,
       -3.43860965e-03, -7.85640534e-03, -1.24688623e-02,
       -1.33948615e-02, 1.04154507e-03, -2.31892988e-02, 8.27933755e-03,
       5.55172050e-03, -1.94605645e-02, -1.79654371e-03, 1.32489493e-02,
       -9.60518233e-03, -5.35194238e-04, -2.59600040e-02, 7.02353287e-03,
       2.14822758e-02, 3.03346664e-02, 2.34220754e-02, 1.81014352e-02,
       5.54936705e-03, -1.48800863e-02, -3.00362930e-02, -1.39880190e-02,
       7.89750181e-03, 2.59401780e-02, 5.31685464e-02, 1.70515273e-02,
       3.19216959e-02, 1.04541630e-02, -3.99719253e-02, -3.39892469e-02,
       -1.38063673e-02, -2.47277226e-02, -1.58482194e-02,
       -1.53938429e-02, -7.65282707e-03, -1.83519479e-02, 1.35417152e-02,
       4.18042624e-03, 9.89927538e-03, -1.17976861e-02, -3.82581656e-03,
       -4.47283573e-02, -3.76758096e-03, 8.78757332e-03, 1.24731278e-02,
       8.66983831e-03, 1.70590971e-02, 1.20960893e-02, -3.97396786e-03,
       4.47038142e-03, -4.14224528e-03, -5.11908112e-03, 6.27163192e-03,
       5.22807334e-03, 1.53184112e-03, -2.18566936e-02, -1.17546190e-02,
       3.16144410e-03, 4.93735541e-03, -4.18438017e-03, 7.88000785e-03,
       1.48227476e-02, 7.55135063e-03, 6.17463700e-03, 1.55559042e-02,
       1.18591208e-02, -1.56378979e-03, 2.99359336e-02, -1.61374211e-02,
       -5.55368233e-03, -8.02325644e-03, -3.64534627e-03,
       -1.60204507e-02, -1.50734885e-03, -2.15982964e-05,
       -1.16556510e-02, 2.81185121e-03, -2.85101794e-02, -7.02339225e-03,
       -4.74439003e-03, 2.76455004e-02, -1.11030675e-02, 4.40492947e-03,
       4.21168050e-03, -2.01220047e-02, 1.90405436e-02, 1.26561793e-02,
       1.59362536e-02, -2.16810722e-02, -8.98330472e-03, -1.85758974e-02,
       -6.28973870e-03, -1.73314065e-02, -2.15469711e-02,
       -3.35750374e-04, 1.49239646e-03, 1.89966951e-02, 2.40945853e-02,
       9.19931568e-03, 3.34048574e-03, -6.34977873e-03, -1.52176498e-02,
       -6.39617722e-03, -7.60582101e-04, -3.18864919e-02,
       -2.01620944e-02, -2.54481528e-02, 1.98618062e-02, 9.25842673e-03,
       2.00404823e-02, 2.66733561e-02, -5.51213138e-03, 1.43814832e-02,
       1.15733286e-02, -4.63899458e-03, -3.76419611e-02, -1.11477850e-02,
       4.37778654e-03, 1.22291269e-02, 6.43705716e-03, 1.12031000e-02,
       1.08260550e-02, -1.68234799e-02, -1.75151601e-02, -1.22190434e-02,
       -1.61927268e-02, -7.98198581e-03, -7.80202216e-03, 2.21824478e-02,
       -1.48179624e-02, 1.47168187e-03, 1.81174427e-02, 6.32206444e-03,
       -6.06751069e-04, -6.43165875e-03, 1.93286408e-02, -2.15032417e-02,
       -1.45202884e-02, -5.67949004e-03, 2.41347123e-02, 2.16739830e-02,
       -7.23563833e-03, -2.93074530e-02, -1.78842507e-02,
       -2.11817175e-02, -3.24281980e-04, -8.38868320e-03, 6.10735361e-03,
       2.38255560e-02, 2.51358636e-02, 2.77527645e-02, -2.59253439e-02,
       -1.16290981e-02, -1.77313685e-02, -2.15122961e-02,
       -3.00452448e-02, -2.09212024e-02, -1.88154131e-02, 9.84956883e-03,
       -9.22309980e-03, 1.84439011e-02, 3.90122226e-03, 1.43640186e-03,
       -2.54605580e-02, -2.29710825e-02, -2.73759142e-02, 2.49954942e-03,
       1.83142945e-02, 8.44097603e-03, -6.71896478e-03, -1.89610384e-03,
       1.59389358e-02, 3.10373679e-03, -2.65972931e-02, -7.09475391e-03,
       6.84103789e-03, 2.08805371e-02, 2.28944197e-02, -1.13850022e-02,
       -2.80233622e-02, -2.68970877e-02, -2.39453781e-02,
       -5.96607011e-03, -2.02312358e-02, 3.97143234e-03, 7.33070122e-03,
       -1.96436289e-04, 9.45931021e-03, -1.53579572e-02, -1.17305517e-02,
       2.61914497e-03, 3.24682752e-03, -2.28525065e-02, -8.45855684e-04,
       8.36812332e-03, 1.34288771e-02, -8.22528638e-03, 1.06012262e-03,
       -2.09505949e-03, -7.11743050e-05, 2.74644862e-03, -1.86462216e-02,
       5.33720478e-03, 1.26857087e-02, -1.05170263e-02, 2.05693152e-02,
       1.12111121e-02, -4.86254832e-03, 1.56082166e-02, 3.62238428e-03,
       5.07948175e-03, 7.62215070e-03, 1.40102988e-03, 1.41950650e-02,
       -1.28868837e-02, -1.41375940e-02, -7.64357205e-03, 1.99679993e-02,
       2.30547376e-02, -9.22284741e-03, -6.07360713e-03, 1.20602967e-03,
       -2.88125183e-02, -3.58759798e-02, 1.18512299e-03, 1.65949017e-02,
       1.70792844e-02, 1.21685900e-02, -6.62595173e-03, 8.49808007e-03,
       3.36264484e-02, 2.04533953e-02, -6.79692719e-03, -7.91572314e-03,
       9.93460324e-03, 2.21127626e-02, 9.37540364e-03, -6.36666128e-03,
       1.64336171e-02, 1.60087273e-02, 3.29502695e-03, -3.16064730e-02,
       -1.52485305e-02, 6.47646433e-04, 1.62613820e-02, 3.93905968e-04,
       -7.23920763e-03, -2.02664244e-03, -3.19594070e-02,
       -1.13441888e-02, -1.50457034e-02, 1.55488653e-02, -1.11373737e-02,
       -4.48617116e-02, -8.18596594e-03, -1.45342723e-02,
       -4.84621385e-03, -2.25194488e-02, -2.02584248e-02,
       -2.04388257e-02, -1.43903811e-02, -2.82966439e-03,
       -4.40633222e-02, -1.61967240e-02, -6.26043766e-05, 2.71082111e-03,
       -3.55826952e-02, 5.59662003e-03, 1.72471497e-02, 5.31290136e-02,
       -5.81433997e-03, -3.49530131e-02, -1.16102332e-02,
       -5.25189890e-03, 4.31281235e-03, 5.65283917e-05, -1.04904165e-02,
       -1.07610924e-02, 1.65884048e-02, 2.66238046e-03, -2.16633771e-02,
       -1.48835350e-02, -1.62455514e-02, -8.96346383e-03,
       -1.48948506e-02, -2.79737022e-02, -3.97269800e-02, 8.46608542e-04,
       1.49072995e-02, -1.55974748e-02, -1.55365271e-02, -2.34323423e-02,
       -1.11125624e-02, -2.31624208e-02, -2.60729883e-02,
       -1.62648726e-02, -1.18727330e-03, -2.08028941e-03, 7.56843435e-03,
       -2.61799581e-02, -9.64740571e-03, -5.16907824e-03, 1.81251615e-02,
       -1.31748710e-02, -3.80010605e-02, 1.43704070e-02, 2.93529406e-02,
       -3.39650753e-04, -1.99765097e-02, -1.08095771e-02,
       -3.65606807e-02, -2.08601654e-02, -2.84675211e-02,
       -7.26821600e-03, 2.54761800e-02, 3.40522565e-02, 2.86377650e-02,
       -5.38633019e-03, -2.43140459e-02, 5.65575249e-03, 2.94426410e-03,
       -5.41372551e-03, -2.78215241e-02, -9.78284888e-03,
       -3.48294456e-03, 1.03105269e-02, -2.67342031e-02, -2.02787928e-02,
       -3.25309485e-03, 6.95635506e-04, 2.28568204e-02, -2.50788368e-02,
       -3.09742428e-02, 2.18100995e-02, 1.09990966e-02, -2.37092990e-02,
       -1.37863746e-02, -2.32278649e-02, -9.91290249e-03,
       -2.00714469e-02, -1.66585296e-02, 4.14533867e-03, 1.41082089e-02,
       3.10093965e-02, 3.50098964e-03, -9.61013790e-03, -1.67120770e-02,
       5.36264153e-03, 1.28702261e-02, 3.21458298e-04, -6.93522859e-03,
       1.12318583e-02, 8.93141702e-03, -2.12220219e-03, -7.19657773e-03,
       -8.13962892e-03, -8.20381474e-03, 5.78142190e-03, -1.99451204e-02,
       -7.46469991e-03, 2.54738219e-02, 1.76550094e-02, -5.52946189e-03,
       -4.72246632e-02, -3.36032808e-02, -4.99270344e-03, 1.05345575e-02,
       -2.30490845e-02, 4.22016624e-03, -6.99667551e-04, 2.76419483e-02,
       -1.88151840e-02, -7.99089484e-03, -3.98413762e-02,
       -1.51896523e-02, -5.06400457e-03, 3.88324400e-03, 1.00698145e-02,
       2.54986398e-02, 1.16413534e-02, 3.74317239e-03, -3.00727561e-02,
       -2.09479686e-02, 1.76674128e-02, 2.30595842e-02, 4.21423558e-03,
       9.29968711e-03, 9.36132669e-03, 2.72124894e-02, -1.35920346e-02,
       -3.25889811e-02, -3.89657021e-02, -2.76729763e-02, 1.51579827e-03,
       -2.89012007e-02, -9.43702459e-03, -2.23848410e-02, 5.90677559e-03,
       -1.35229854e-02, 6.06083265e-03, -1.38682062e-02, -1.63326859e-02,
       5.37545886e-03, -3.30039579e-03, -3.31519567e-03, -6.06729928e-03,
       -1.22616738e-02, -5.54817868e-03, -3.52919400e-02, 7.38150114e-03,
       2.50129439e-02, 2.42406595e-02, -1.84435397e-02, -3.82312317e-03,
       4.89824498e-03, 2.29317807e-02, -2.03665476e-02, -1.35388998e-02,
       -1.12260180e-03, 9.85736772e-03, 4.14486080e-02, 1.46659287e-02,
       -6.54985663e-04, -8.36128555e-03, 8.11336469e-03, -2.37756614e-02,
       -2.09281570e-04, 9.44513828e-03, 8.88501480e-03, -1.17289796e-02,
       -2.40501352e-02, -2.69084014e-02, -6.96448237e-03,
       -2.49082036e-02, -1.39337275e-02, -1.15838228e-02,
       -3.31703294e-03, 2.31309282e-03, -2.06161961e-02, -2.37569381e-02,
       -1.34993941e-02, 5.09619992e-03, -4.21469845e-03, -1.89392939e-02,
       -8.80318321e-03, -1.40243657e-02, 5.16280765e-03, 1.08406590e-02,
       1.17778284e-02, -1.03931467e-03, 7.34668458e-03, -1.81026221e-03,
       -1.04325237e-02, -2.57132705e-02, -3.07253115e-02,
       -1.07837068e-02, 2.24762247e-03, -6.02509780e-03, 3.04504577e-02,
       9.67992004e-03, 8.59290920e-03, -3.09665850e-03, 1.67300664e-02,
       5.52537898e-03, -1.58845223e-02, -2.09965138e-03, 4.68057860e-03,
       6.33049756e-03, -1.28287431e-02, -2.12295558e-02, -3.63008096e-03,
       3.18961265e-03, -1.38791203e-02, -2.02764198e-02, 1.27885956e-02,
       1.71860866e-02, 1.41203264e-02, 1.83335855e-03, -6.19687466e-03,
       6.74754288e-03, -1.56196402e-02, -9.52589232e-03, 3.53627233e-03,
       1.33148851e-02, 1.66764949e-02, -1.75038731e-04, -1.66818015e-02,
       -5.54349553e-03, -1.80328563e-02, 1.43174897e-03, -6.62405742e-03,
       1.60107967e-02, 2.50740461e-02, 3.15755047e-02, 2.51478814e-02,
       7.30461301e-03, 6.82636723e-03, 1.30413389e-02, -1.94849242e-02,
       -2.40002330e-02, -1.79958530e-02, 8.93180445e-03, -2.77072601e-02,
       4.97541856e-03, 7.43309082e-03, 4.31115506e-03, -1.03623997e-02,
       -1.88723654e-02, -1.84655879e-02, 1.71553548e-02, 1.77383628e-02,
       1.35743916e-02, 2.67948154e-02, 9.31198709e-03, -2.14418839e-03,
       -1.94478035e-02, -6.26446388e-04, -2.06513274e-02,
       -1.93970129e-02, -3.05007081e-02, -3.19164321e-02, 2.50044055e-02,
       5.01787430e-03, 4.58716648e-03, 1.36601552e-02, -2.58634798e-02,
       -1.66491084e-02, 2.92080641e-02, 2.47273967e-02, 1.32533228e-02,
       4.31877635e-02, 2.42806114e-02, 1.71907879e-02, 3.25535354e-03,
       -6.38457015e-03, -6.76571298e-03, 1.80751998e-02, 1.85950678e-02,
       3.52924829e-03, 1.01026765e-03, -2.01662555e-02, -1.58373099e-02,
       -2.20832396e-02, -3.32416687e-03, -7.99190160e-03,
       -9.69083514e-03, 2.35962179e-02, -2.51509324e-02, 1.23146817e-03,
       2.62112077e-03, -1.65790673e-02, -8.35333858e-03, -2.54030470e-02,
       -2.98984870e-02, 2.08630990e-02, 2.44764984e-02, 1.22234374e-02,
       -1.06173130e-02, -1.02153271e-02, -2.12803800e-02,
       -1.64745189e-02, -9.70173802e-04, -2.12556571e-02,
       -1.56544223e-02, 6.42963860e-04, -9.23442002e-03, 7.77526060e-03,
       1.08184991e-02, -7.34452810e-03, 2.23180465e-02, 1.79536678e-02,
       3.42762377e-03, -1.58373620e-02, -1.97059307e-02, -1.47345383e-02,
       -9.76148434e-03, -3.79668782e-03, -2.71156523e-02, 3.41274496e-03,
       -3.45792342e-03, -7.72297289e-03, -1.69717288e-03, 5.04417671e-03,
       2.69428212e-02, -1.00805785e-03, -1.16542215e-02, -1.44694829e-02,
       -7.27932341e-03, 2.73573957e-03, -6.26113452e-03, -2.64133904e-02,
       -2.74388846e-02, 7.95822684e-03, 5.82744461e-03, 2.65339762e-02,
       -6.44504093e-03, 3.01096179e-02, 5.87266963e-03, 1.76923051e-02,
       -8.61516502e-03, -2.51906272e-03, 4.25884277e-02, 3.23338271e-03,
       6.59765210e-03, 4.98545263e-03, 2.07108203e-02, -2.76104826e-02,
       4.28700773e-03, 2.35295147e-02, 3.25387046e-02, -1.72483586e-02,
       -1.92153715e-02, -1.20443394e-02, -1.39787132e-02,
       -2.15597339e-02, -1.25450185e-02, 1.70901623e-02, 1.34735880e-02,
       -2.43548281e-03, -1.06569575e-02, -1.29468590e-02, 1.14506483e-02,
       -8.04930925e-03, -1.46782016e-02, 2.95705721e-03, 6.85329735e-03,
       -1.73055986e-03, -8.76175691e-05, 1.39924223e-02, 6.80813845e-03,
       1.18536018e-02, 9.29435156e-03, 8.70935526e-03, 8.73039197e-03,
       2.87096705e-02, 1.02379322e-02, 1.87425725e-02, 5.92730753e-03,
       2.72474475e-02, 1.57201104e-02, 4.86856792e-03, 2.63015553e-02,
       9.02881008e-03, 2.37651430e-02, 5.01286099e-03, -1.13703394e-02,
       -5.49607836e-02, -3.81327346e-02, -1.79185923e-02,
       -1.65795628e-02, 7.75363704e-04, -1.79141164e-02, 1.65703835e-03,
       1.73469167e-02, -7.04537053e-03, -3.35667096e-02, -2.06698794e-02,
       9.83907655e-03, -3.84460762e-02, -1.57612674e-02, 1.43140154e-02,
       4.61801253e-02, 1.07501098e-03, 1.43806236e-02, -8.79402738e-03,
       -1.42224664e-02, -1.02677997e-02, 4.34806384e-03, 2.01748963e-02,
       -1.38184140e-02, 9.70534049e-03, -6.54707989e-03, 3.24370409e-03,
       1.79974700e-03, 1.72503758e-02, 2.58660899e-03, -6.46213442e-03,
       8.30712635e-03, -3.66386175e-02, -3.46458424e-03, 6.48736721e-03,
       -2.59169634e-03, -8.85094487e-05, -1.18179694e-02,
       -2.98013445e-03, -2.58123614e-02, -1.80268791e-02,
       -2.19162814e-02, 5.74877486e-03, -5.51175792e-03, -1.60104465e-02,
       -1.06326435e-02, -2.12313142e-02, -9.57342889e-03,
       -9.95379779e-03, -1.23001197e-02, -1.05481315e-02, 5.67865837e-03,
       3.93960439e-03, 3.77441035e-03, -1.11037586e-02, 6.35845959e-03,
       -6.69299671e-03, -2.78816489e-03, 3.59549606e-03, 1.34445895e-02,
       2.23328033e-03, -2.16845539e-03, -3.19824507e-03, -2.06913073e-02,
       -1.96762457e-02, -2.18838882e-02, 4.83132666e-03, -5.49668772e-03,
       -9.45212040e-03, -3.50741134e-03, 1.04389638e-02, -1.39854979e-02,
       -1.80557966e-02, 5.08795166e-03, -9.86755919e-03, -1.33067463e-02,
       6.67970302e-03, -8.41957610e-03, 1.21887410e-02, 2.29402483e-02,
       -2.97719464e-02, 1.04929870e-02, -3.07761179e-03, -2.17952356e-02,
       -4.56360681e-03, 2.32370663e-02, 1.42295221e-02, 4.92666708e-03,
       -5.02157537e-03, -4.16069403e-02, -3.12350225e-02,
       -2.11907309e-02, -3.35303880e-03, -1.93606857e-02,
       -1.98159367e-02, 1.12325242e-02, 3.29627059e-02, 1.04231518e-02,
       -1.97506193e-02, -2.87683830e-02, -2.37885360e-02,
       -2.51459777e-02, -2.12827064e-02, 1.55961933e-02, 9.76676866e-03,
       1.00834230e-02, 2.58994978e-02, -1.25823531e-03, -2.46556662e-02,
       -3.16468477e-02, -1.49730248e-02, 4.86838818e-03, 2.09343527e-02,
       5.76496776e-03, 8.13532714e-03, 3.82695012e-02, -4.96001216e-03,
       -3.34061347e-02, -3.70082967e-02, -2.50545908e-02,
       -6.83759898e-03, -6.85810717e-03, 2.66395938e-02, 2.01636422e-02,
       1.26701612e-02, 6.71480363e-03, -2.17720047e-02, -1.54972104e-02,
       -2.84747686e-02, -1.04594501e-02, 2.24759877e-02, 1.65800918e-02,
       3.65357089e-04, 1.75951794e-02, 2.40284465e-02, 2.09223013e-02,
       -1.61261428e-02, -2.91466340e-03, 1.45190547e-03, -2.02597361e-02,
       -1.40045164e-02, -3.02202930e-03, -3.23020071e-02,
       -1.08767655e-02, -3.33385020e-02, 2.49847341e-02, 2.24218369e-02,
       -3.84350354e-03, -1.46975508e-02, -2.24451292e-02,
       -2.10301019e-03, -2.17062775e-02, -1.31790238e-02, 2.74709146e-03,
       1.88759272e-03, 1.16549721e-02, -1.75687913e-02, -2.82857902e-02,
       3.81193962e-03, 3.54547123e-03, -3.37400772e-02, -2.13231752e-03,
       -3.46062370e-02, 1.99570768e-02, 2.35019214e-02, 1.28054367e-02,
       -1.76713057e-02, 1.09306788e-02, 1.00365542e-02, -3.98022532e-02,
       5.37183369e-03, 2.31438894e-02, 2.31537223e-02, 1.78530216e-02,
       -2.09687557e-02, -3.42724994e-02, 5.67427138e-04, -4.17136401e-03,
       3.73006752e-03, -7.93247018e-04, -3.84185910e-02, -1.75244864e-02,
       1.45453867e-02, 1.22426398e-04, -1.44995563e-02, -1.71932001e-02,
       -3.81286070e-02, -1.24235470e-02, -2.15816572e-02,
       -3.25169414e-02, -5.05479472e-03, 8.14993307e-03, 7.72375893e-03,
       -2.83716414e-02, 3.61365862e-02, 1.40533326e-02, -1.66788809e-02,
       -7.55512435e-03, -1.77517235e-02, 7.32602365e-03, 3.37958196e-03,
       -1.06097022e-02, -3.36073525e-03, 1.82822105e-02, 2.22677793e-02,
       3.17493007e-02, 2.48871855e-02, -2.21849773e-02, -1.37786381e-02,
       -2.36234758e-02, -1.13933990e-02, -7.15762516e-03,
       -1.17114801e-02, -2.80929822e-02, -1.08301016e-02,
       -2.33585276e-02, -2.77260542e-02, 5.95985679e-03, 1.29146753e-02,
       5.68406133e-04, -1.87946465e-02, 3.22263222e-03, -2.47309618e-02,
       1.07008149e-03, -2.41580606e-03, -1.03139281e-02, 7.12500094e-03,
       -7.22780777e-03, -1.92492101e-02, -9.23447870e-03,
       -1.15128579e-02, 4.86410316e-03, 6.90792175e-03, 1.84651744e-02,
       5.31641941e-04, 2.73701502e-03, -7.56918080e-03, -7.12170405e-03,
       -1.18057346e-02, -9.96644795e-03, -8.22587777e-03,
       -1.81535874e-02, -4.18466690e-04, 1.06196161e-02, 1.95777621e-02,
       -5.92481531e-03, 6.53366838e-03, -1.54752359e-02, 1.22101232e-02,
       -3.68072838e-02, -8.13059043e-03, 1.41274428e-03, -2.12982707e-02,
       -7.84989633e-03, -1.51679711e-03, -2.10190937e-02, 2.95760273e-03,
       9.17920284e-03, -8.79205950e-03, 1.31288674e-02, 6.96927356e-03,
       -2.09147986e-02, -1.47679020e-02, -9.98420455e-03,
       -1.02858786e-02, 2.37024622e-03, 6.46817440e-04, 2.02411111e-03,
       -3.94561980e-03, 7.95349944e-03, -2.91978568e-02, 1.04634995e-02,
       -4.58673062e-03, -2.65040901e-03, -9.01634991e-03,
       -8.84030946e-03, -2.45022494e-03, 6.51752809e-03, 5.74884750e-03,
       -8.10009148e-03, 1.24809071e-02, -1.82981847e-03, -4.42858692e-03,
       -1.20253442e-02, -2.70215757e-02, 1.64559502e-02, 1.71638522e-02,
       9.86474473e-03, -3.58795375e-02, -4.19201851e-02, -2.63976003e-03,
       -3.24412948e-03, -2.53113601e-02, -1.89311989e-02,
       -6.67305477e-03, -1.67487152e-02, 7.08825747e-03, -3.35817486e-02,
       -2.97787338e-02, 1.13500832e-02, 2.34450381e-02, -2.22783182e-02,
       -3.91071662e-02, -9.04964749e-03, 3.23595200e-03, 9.44214687e-03,
       -1.52237043e-02, -4.09569213e-04, -1.24784780e-03,
       -2.78775319e-02, -3.52013074e-02, -2.62445509e-02,
       -8.41001340e-04, 2.23138463e-02, 2.68265009e-02, 1.10200755e-02,
       2.51302700e-02, 3.13777737e-02, 4.40918328e-03, -2.82989051e-02,
       -1.01059787e-02, -9.74764116e-03, -3.85817769e-03,
       -1.22884975e-03, -3.45015936e-02, -2.31295582e-02, 4.00395785e-03,
       2.24110391e-02, -1.49763506e-02, -2.39051133e-02, -2.62293518e-02,
       -1.01975650e-02, -1.60276350e-02, -2.49563418e-02, 4.29578125e-03,
       6.46477379e-03, 2.57526711e-02, 7.03149242e-04, 4.83178068e-04,
       8.63503199e-03, 2.42089760e-03, -1.76839270e-02, -1.72669981e-02,
       -9.67889838e-03, 1.47083616e-02, 9.36576072e-03, -7.37004727e-03,
       -4.02382994e-03, -1.33524500e-02, 5.32363961e-03, -2.99914880e-03,
       -8.17365479e-03, -1.02179497e-03, -1.79809593e-02, 1.69881955e-02,
       2.53345678e-03, 3.07617616e-03, -2.78624683e-03, 4.43708850e-03,
       3.27160279e-03, -1.35321869e-02, -1.07812788e-03, -1.09685771e-02,
       1.09682139e-03, -1.50050009e-02, -9.64851293e-04, 1.36451535e-02,
       1.32313641e-02, -4.13744478e-04, -1.77543890e-02, 1.67362150e-02,
       -8.53520073e-03, -1.45919025e-02, -2.26470232e-02, 1.54848909e-02,
       6.55018666e-04, 1.02197621e-02, 2.54913568e-02, -1.00333439e-02,
       -8.69880337e-03, -1.75816864e-02, -2.60419241e-04,
       -1.25794280e-02, 3.22826579e-02, 2.63779219e-02, 3.15026240e-03,
       2.12665126e-02, 1.00897225e-02, 3.15408818e-02, -5.18335821e-03,
       -5.63423429e-03, -3.02947382e-03, -3.84276081e-03,
       -1.26159340e-02, -1.03070233e-02, -4.25732099e-02,
       -5.88180646e-02, 7.12790003e-04, -9.47415270e-03, 1.23921526e-03,
       2.04168130e-02, -1.55123100e-02, -2.07680408e-02, 1.83136519e-02,
       1.11543611e-02, -1.73853282e-02, 3.06572509e-03, 5.25881955e-03,
       -6.79119676e-03, 3.01012374e-03, 1.84202958e-02, 1.52831739e-02,
       1.65541135e-02, -1.50396721e-02, -6.13442669e-03, 5.49106672e-03,
       -1.09694507e-02, 2.05523316e-02, 1.05798990e-02, 1.33432047e-02,
       3.34656239e-02, 4.59606275e-02, 2.50781141e-02, 2.99149901e-02,
       -1.90672372e-02, 1.22999949e-02, 1.51554067e-02, -4.79635503e-03,
       -1.23112099e-02, -1.40241729e-02, 2.62840316e-02, 2.64534075e-02,
       -2.78872792e-02, -2.44298689e-02, -1.57941934e-02,
       -2.42468007e-02, -1.46783469e-02, -3.99806164e-03,
       -3.72773386e-03, 1.36461137e-02, 7.26319442e-04, -3.77421975e-02,
       -1.42848184e-02, 5.77895553e-04, -1.84408855e-02, 6.82671554e-03,
       8.50725081e-03, 1.08064283e-02, 1.75373871e-02, 8.24354682e-03,
       -5.90678937e-05, -2.75748689e-02, 1.23015866e-02, -3.79818049e-03,
       -3.47552784e-02, -5.42551978e-03, 1.85575206e-02, 3.02834287e-02,
       5.57172950e-03, 1.18384873e-02, 7.83695094e-03, 5.22295386e-03,
       -2.04687892e-03, -2.93836556e-02, 7.67314713e-03, 8.52753315e-03,
       -1.56933330e-02, -3.03323511e-02, -3.72932553e-02,
       -4.62685376e-02, 3.90133145e-03, -6.47159806e-03, 2.35551875e-02,
       2.57385112e-02, 2.20553875e-02, -3.65931280e-02, -1.03212446e-02,
       -5.90729481e-03, -3.47246490e-02, 3.10917455e-03, 1.45632206e-02,
       3.47035155e-02, 2.26887618e-03, 1.83013640e-02, -7.82599091e-04,
       -3.76127101e-02, -1.01096369e-02, -2.56885160e-02,
       -7.04648392e-03, -7.68676028e-03, -1.21465465e-02, 1.87904630e-02,
       2.12410446e-02, -7.53451185e-03, 1.91700887e-02, 1.70197524e-02,
       -4.97351913e-03, 8.39612819e-03, -5.08613326e-03, -6.32124254e-03,
       4.80251107e-03, -7.84173235e-03, -4.49615940e-02, -2.77990960e-02,
       -1.79734416e-02, 3.08893854e-03, 3.46715725e-03, 2.01676935e-02,
       1.39021585e-02, -9.97688994e-03, -2.05929149e-02, -3.39022279e-02,
       -1.18159987e-02, -4.07588016e-03, 1.47139747e-02, -1.18877152e-02,
       -3.46245733e-03, 1.87689122e-02, 5.02054486e-03, 2.84493878e-03,
       -1.95733532e-02, -1.37053626e-02, -2.08787387e-03, 1.56878028e-02,
       4.23952052e-03, -2.25770008e-03, -1.51676312e-03, 4.19317372e-03,
       -1.91288590e-02, 1.14950771e-02, -6.73962873e-04, 7.98059907e-03,
       1.67862233e-02, -8.84443894e-03, -5.94780827e-03, 6.19797595e-03,
       -3.30011314e-03, -7.18588335e-03, -1.27390036e-02, 2.43424554e-03,
       -7.97698181e-03, -1.62715428e-02, -1.62292849e-02,
       -9.55645740e-03, 1.13934474e-02, -1.25420913e-02, -1.91448946e-02,
       -2.11117584e-02, -1.03508849e-02, -1.21238353e-02, 1.67323332e-02,
       9.38185956e-03, 2.04398064e-03, 1.35052195e-02, -4.44045058e-03,
       -2.38298960e-02, -2.83640483e-03, -1.07799061e-02,
       -2.92684813e-03, 1.97780430e-02, 2.30836608e-02, -1.01078125e-02,
       3.70678608e-05, -4.97681787e-03, -1.67445000e-02, -9.68750392e-04,
       4.53238981e-03, -7.35225715e-03, 2.53018625e-02, 1.89469885e-02,
       -4.01112996e-03, 2.07662839e-03, 4.48076427e-03, -1.80207901e-02,
       -5.56486833e-04, 1.64313140e-04, -2.62664016e-02, -1.31787360e-03,
       -1.91954523e-02, 1.54322060e-03, 1.38130579e-02, 1.62572376e-02,
       -8.87823524e-04, -9.46015958e-03, -1.69835687e-02,
       -3.37419622e-02, -1.16697634e-02, -2.36437120e-03, 1.44664524e-02,
       1.75769892e-04, 3.53635382e-03, -1.99296884e-02, 1.07937735e-02,
       1.77545566e-02, 5.61395707e-03, 1.40520791e-02, -1.54596921e-02,
       -5.98795014e-03, 1.56693708e-03, 1.23161059e-02, 1.13098957e-02,
       2.14073043e-02, 8.77847988e-03, -2.70422492e-02, 1.70937330e-02,
       1.49266617e-02, 6.55495003e-03, 3.39096948e-03, 1.22167673e-02,
       -1.24667061e-03, -2.09268853e-02, -3.90861928e-02,
       -2.98292004e-02, -1.92404017e-02, 1.83814559e-02, -7.87483435e-03,
       -2.24890728e-02, 2.40418036e-02, 8.32204521e-03, -1.82359628e-02,
       -2.04172209e-02, -3.77270617e-02, -2.69199852e-02, 3.34364315e-03,
       -3.79206822e-03, 8.20880383e-03, 2.95085460e-02, 1.56493112e-02,
       -4.11279127e-03, 3.97492247e-03, -1.30199026e-02, -5.69051784e-03,
       3.27825546e-02, 3.40594474e-04, -2.48703314e-03, 1.91755909e-02,
       7.47937104e-03, -6.73687039e-03, 1.94521248e-02, -4.23163408e-03,
       3.43890558e-03, 4.05187868e-02, 2.05413122e-02, 1.01266718e-02,
       1.10079926e-02, 2.19329982e-03, -1.95337343e-03, -3.74419801e-03,
       -3.00342999e-02, -1.21564080e-03, -8.25584494e-03, 7.78421946e-03,
       1.95200164e-02, 9.13212716e-04, -1.29539957e-02, 1.26178209e-02,
       2.01821290e-02, 8.33233702e-04, -1.88510399e-02, 8.09737202e-03,
       8.59115459e-03, -8.53777677e-03, 7.86310248e-03, -1.08217029e-02,
       -3.15446523e-03, 4.67871921e-03, 7.17504474e-04, 1.77151188e-02,
       3.14940587e-02, 1.99583527e-02, 3.12072840e-02, -2.01680772e-02,
       -8.37771047e-04, 2.73937173e-02, 4.81404364e-03, -6.39883708e-03,
       -9.35440324e-03, 3.25267091e-02, 1.41658625e-02, -1.45449508e-02,
       -1.48360627e-02, 1.45576298e-02, -2.76658125e-02, -1.32997846e-02,
       -4.65456992e-02, 2.81588249e-02, -4.78094490e-03, 1.33511424e-02,
       -3.82581465e-02, -9.95908584e-03, 1.13139059e-02, -3.31532992e-02,
       -1.27989799e-02, 9.41674877e-03, 2.70650815e-02, -3.12442537e-02,
       -1.29754785e-02, -2.73159333e-02, -6.86958479e-03,
       -4.60351305e-03, -5.41023863e-03, 1.52933514e-02, -3.43639627e-02,
       4.58799303e-02, 1.96821876e-02, 5.17452462e-03, -1.16880275e-02,
       -1.21950153e-02, 1.32349357e-02, 6.75657415e-04, -1.55191794e-02,
       -2.71393545e-02, 2.93801166e-02, -9.07420274e-03, 1.05226052e-03,
       -1.00472271e-02, -5.02051611e-04, -1.11415423e-03,
       -2.11464036e-02, -1.63888335e-02, -3.71543155e-03, 1.86131038e-02,
       2.01965042e-04, 1.19419408e-03, -7.25329062e-03, 3.94409476e-03,
       -1.08945267e-02, -1.16302036e-02, -4.51300759e-03,
       -2.53461152e-02, -1.96241159e-02, -2.49218680e-02,
       -3.91956652e-03, -8.62406683e-04, -2.45492700e-02,
       -1.29445149e-02, 2.95594521e-03, -6.12139702e-03, -2.55773254e-02,
       3.83423828e-02, -2.27324548e-03, 2.32816744e-03, -1.72696840e-02,
       -7.55868433e-03, -3.64794545e-02, -9.27468110e-03, 2.01359876e-02,
       -1.78987253e-02, 2.75311507e-02, -4.42096824e-03, 1.01588690e-03,
       7.08475709e-04, -8.72807205e-03, -1.27100358e-02, -5.98072493e-03,
       1.28767760e-02, -1.43174892e-02, -2.35117022e-02, -1.81242079e-02,
       -1.22414846e-02, -1.48448450e-02, -3.20685580e-02,
       -9.90904123e-03, -3.21097001e-02, -1.86070567e-03,
       -2.32453309e-02, 2.56901933e-03, -1.55331902e-02, -2.65388489e-02,
       -2.23506112e-02, -6.86016679e-03, -1.48712471e-02,
       -7.04649510e-03, 5.78866480e-03, -2.20523719e-02, 7.15642283e-03,
       -7.18693389e-03, -1.02060670e-02, -1.07143102e-02,
       -1.64892320e-02, 4.20103967e-03, -1.30124390e-03, 3.97707801e-03,
       -3.96310054e-02, 3.09982318e-02, 1.50295934e-02, -2.12771054e-02,
       -7.14994920e-03, -1.74935460e-02, -5.11984527e-03,
       -1.88398752e-02, -1.34749105e-02, -4.07327153e-02,
       -1.31857686e-03, 2.41531758e-03, -4.76927264e-03, -1.40682952e-02,
       -1.66313013e-03, -6.07649656e-03, -1.00372219e-03,
       -1.38876494e-02, -2.41999868e-02, 7.55398243e-04, 5.21055795e-03,
       -1.44108688e-03, -2.07804013e-02, -1.55231003e-02,
       -1.70595571e-02, -1.25351045e-02, -2.13838536e-02,
       -5.68743572e-02, 6.17677753e-04, 2.97753103e-02, -6.09066663e-03,
       -2.88980943e-03, -4.66376124e-03, 4.21293918e-03, 1.13897882e-02,
       -1.02201267e-03, 5.30335447e-03, -5.31637156e-03, 5.49735548e-03,
       -1.47812301e-02, 9.62783175e-04, -2.64411289e-02, -1.37994830e-02,
       1.32612148e-02, 1.26176570e-02, -4.65872474e-02, -1.20531144e-02,
       -1.96762313e-03, -1.90502498e-02, -3.18452865e-02,
       -8.74385424e-03, -1.80597883e-02, 4.72515030e-03, 2.91205570e-02,
       -2.98976991e-02, 9.02965385e-03, -2.58255075e-03, 1.93037663e-03,
       1.39101828e-03, -2.39774641e-02, 3.02906730e-03, 2.00918457e-03,
       2.32002791e-02, -2.22435053e-02, -2.32823063e-02, 6.30827760e-03,
       -1.38532799e-02, -4.61188727e-04, 9.77277663e-03, -6.95995986e-03,
       -3.31245572e-03, 2.53590234e-02, -3.82894184e-04, 7.25160120e-03,
       2.26091854e-02, 5.42340660e-03, 3.47080338e-03, 1.75031833e-02,
       -2.10564394e-04, -2.03098468e-02, -2.12434568e-02,
       -6.02874160e-02, -2.75306832e-02, -1.99567955e-02,
       -4.91038244e-03, 1.72344614e-02, -1.89183629e-03, -1.13430098e-02,
       -1.89094581e-02, -1.45757692e-02, -4.09088098e-02,
       -1.09672211e-02, -3.40976790e-02, -8.68017226e-03,
       -4.99197003e-03, 3.83961238e-02, 7.81173259e-03, -2.06355974e-02,
       -1.67983994e-02, -3.86807099e-02, -1.34052811e-02,
       -8.96607433e-03, -1.19387609e-04, 4.60811332e-03, 2.86520813e-02,
       2.18343493e-02, 1.59272738e-02, -4.40114178e-03, -9.84059833e-03,
       -1.97033072e-03, -1.32606300e-02, -1.25435516e-02,
       -1.87236629e-02, -3.10625881e-03, -1.02697117e-02,
       -2.18544267e-02, 7.11537432e-04, -3.12304143e-02, -1.37893911e-02,
       -3.04216668e-02, -2.21615210e-02, -7.77582545e-03, 7.52068404e-03,
       -1.09239598e-03, -2.35064365e-02, -1.30561413e-02,
       -1.62230525e-02, 1.01788240e-02, -3.33080702e-02, -1.90150272e-02,
       -1.29284700e-02, 5.81279956e-03, 1.21320896e-02, 1.95991490e-02,
       1.13932546e-02, -8.29732791e-03, 3.94023396e-03, -2.59738807e-02,
       -2.48429086e-02, -3.12935151e-02, -1.58858541e-02, 7.55203702e-03,
       1.13519868e-02, 1.41941663e-02, 2.45942641e-02, 2.10951027e-02,
       -6.22770330e-03, 6.50099479e-03, -1.63218118e-02, 8.70616082e-03,
       1.75224431e-02, 9.19102971e-03, -6.64744526e-03, -4.16483842e-02,
       -1.04491599e-02, -2.98837200e-02, 1.75369736e-02, -1.38644623e-02,
       2.49241889e-02, 3.61318290e-02, 1.11939115e-02, -1.33908715e-03,
       -3.82894576e-02, -2.27485783e-02, 9.21018701e-03, 1.47368275e-02,
       -1.36437519e-02, -2.24406514e-02, 1.30722318e-02, 1.92257948e-02,
       1.50702661e-02, -1.80187039e-02, -1.67673584e-02, -1.40287858e-02,
       4.87848651e-03, -1.87378433e-02, 1.52455887e-03, 4.39922921e-02,
       2.81740688e-02, -6.43128622e-03, -1.61963087e-02, -1.06569920e-02,
       2.94714645e-02, 4.68679843e-03, -5.55406837e-03, 3.17910053e-02,
       1.30275190e-02, -1.45882471e-02, -2.35316176e-02, -4.86096255e-02,
       -3.02038882e-02, 1.03884125e-02, -1.08218919e-02, -1.22676836e-02,
       1.63442362e-02, 1.40665155e-02, 5.51355816e-03, 4.25795093e-03,
       -1.07168162e-03, -2.68486026e-03, 7.49858515e-03, -7.24686636e-03,
       -9.32765380e-03, -6.04493944e-05, 1.51645457e-02, -8.24706536e-03,
       -5.02948612e-02, -2.18666326e-02, -1.25880465e-02, 2.91366018e-02,
       -2.01945677e-02, -1.03098741e-02, 4.98158066e-03, 3.31305526e-03,
       2.29141533e-05, 8.59971251e-03, 2.44837883e-03, 1.44060859e-02,
       1.38430661e-02, -7.58206332e-03, -1.65331690e-03, 1.43202888e-02,
       5.94944507e-03, -2.53171893e-03, -1.89632848e-02, 1.51507128e-02,
       -4.03579958e-02, -7.94023369e-03, -1.92743782e-02,
       -1.77386291e-02, -6.78403827e-04, 1.82131827e-02, 7.38332886e-03,
       1.51170194e-02, 1.00379400e-02, -2.16748677e-02, -2.37090476e-02,
       -3.66504490e-02, -3.81322280e-02, 2.96194851e-03, -7.71551579e-03,
       4.57082456e-03, 7.65906321e-03, 6.88836863e-03, -8.85109045e-03,
       -2.48945458e-03, -2.00424213e-02, -2.28816047e-02, 6.85691461e-03,
       -3.87786725e-03, 7.43351085e-03, 2.95500588e-02, 4.54847813e-02,
       4.18769941e-03, -2.42421310e-02, -1.46591328e-02, -1.39184138e-02,
       6.27455907e-03, 1.31889721e-02, -4.42870799e-03, -1.43791852e-03,
       4.74982709e-03, -1.86317395e-02, -2.76730713e-02, -3.15067992e-02,
       -3.01097967e-02, 1.49341719e-02, -9.59455967e-03, 4.57779570e-05,
       -8.49349890e-03, 1.69250474e-03, 1.50848168e-03, -2.07044780e-02,
       -3.81166637e-02, -2.00629048e-02, -2.51534366e-04,
       -1.33345253e-03, -5.91806043e-03, 2.10874230e-02, 2.79013719e-02,
       -2.71076406e-03, -2.55275238e-03, -2.88382545e-02,
       -4.15539593e-02, 1.36288954e-02, -2.14102375e-03, 1.34349968e-02,
       2.60130893e-02, 2.74961069e-02, -7.95015134e-03, 2.45266762e-02,
       -8.60173069e-03, -4.01747227e-02, 1.48261758e-02, -1.27723739e-02,
       -2.07964294e-02, -1.26840165e-02, 2.36202628e-04, 1.61948614e-02,
       3.27095366e-03, -1.45544047e-02, -1.08492182e-04, 1.59289315e-02,
       -2.22966466e-02, -7.53252627e-03, 1.52588254e-02, 6.23595156e-03,
       2.00405587e-02, 7.48041144e-04, -2.72353217e-02, 3.85093107e-03,
       2.70593520e-02, 1.00225583e-03, -9.20417067e-03, 4.46993206e-03,
       -1.67908706e-02, 9.24957357e-03, 1.44196232e-03, -6.85339281e-03,
       1.24197863e-02, 2.24519167e-02, 1.44322240e-03, 1.06461626e-02,
       3.24956812e-02, 1.96846183e-02, 2.51926668e-02, -1.42160021e-02,
       -1.80912912e-02, 1.14957094e-02, -2.29880284e-03, -1.87400728e-02,
       -1.42466091e-02, 7.14164041e-03, 3.69306980e-03, 8.00989848e-03,
       -2.55893338e-02, -3.96111198e-02, -2.25117300e-02, 1.49529020e-04,
       -1.34635402e-03, 1.25066610e-02, -5.82123455e-03, -3.12530845e-02,
       4.28854115e-03, -1.57901905e-02, -2.70002149e-02, -2.85008177e-02,
       4.58197156e-03, -1.19746337e-02, -6.34432770e-03, 2.86265444e-02,
       2.06508543e-02, 2.06793770e-02, -2.83964984e-02, -3.03582475e-02,
       -1.59555301e-02, 5.97400218e-03, 2.26338394e-02, 1.18249506e-02,
       2.89321486e-02, 8.99392273e-03, 1.93172619e-02, 6.53062714e-03,
       4.23339568e-03, -2.50197127e-02, 2.40073111e-02, 1.56084560e-02,
       4.92066843e-03, 9.03819408e-03, -1.35506336e-02, -2.59704608e-02,
       2.52016558e-04, -2.09822152e-02, -2.67690830e-02, -1.01056322e-03,
       -1.17250038e-02, -2.47339308e-02, 5.86913340e-03, -2.88848300e-02,
       -3.84562984e-02, -5.02615352e-04, -2.44776462e-03,
       -2.66056154e-02, 7.31369574e-03, 2.66040917e-02, 4.33395943e-03,
       1.85465962e-02, 4.12571273e-04, -1.51228653e-02, 8.74076970e-03,
       -5.93895931e-03, -3.80087234e-02, 2.27831071e-03, 3.89243593e-03,
       4.19799145e-03, 1.90449972e-02, 9.00222361e-03, -2.52198447e-02,
       1.24097141e-02, -3.94597044e-03, -2.82175206e-02, -9.66812670e-03,
       -1.26917986e-02, -5.93928760e-03, 1.90622080e-02, 1.01387156e-02,
       -1.23672411e-02, -1.03223659e-02, -9.26159974e-03,
       -2.70631444e-03, -1.28151681e-02, 1.42184729e-02, 3.08042131e-02,
       1.42909689e-02, -4.35788594e-02, -1.70064867e-02, 6.95191277e-03,
       -8.10460746e-03, -1.39314570e-02, 9.08821181e-04, -7.53920805e-03,
       2.09911214e-03, 2.46631857e-02, 3.57254483e-02, 2.78854766e-03,
       1.20476112e-02, -1.39358211e-02, -6.71676500e-03, -1.07817417e-02,
       3.92562570e-03, 1.73668750e-02, 1.49773364e-03, -7.68400775e-03,
       2.68333200e-02, 2.13134922e-02, 9.19393823e-03, -1.13600050e-03,
       7.74579914e-03, -1.35585014e-02, -1.16851861e-02, 3.43248285e-02,
       -2.18769144e-02, 4.52606827e-02, 1.12188533e-02, -1.65234115e-02,
       4.78077476e-04, 7.84703530e-03, -1.31351529e-02, -1.93835907e-02,
       -1.63731277e-02, -5.38014397e-02, 1.32713802e-02, -1.33823305e-02,
       -5.40520949e-03, -1.43359555e-02, -2.54979008e-03, 2.13396382e-02,
       -1.02742696e-02, 2.21512001e-02, 1.17834080e-02, 4.04909253e-02,
       -6.10010885e-03, -2.70290952e-02, -2.16435771e-02, 1.67940184e-02,
       1.47857210e-02, -1.66133121e-02, -1.26471575e-02, -2.48556472e-02,
       5.79145551e-03, 2.96813762e-03, -2.78918482e-02, -1.88366603e-02,
       -5.02084848e-03, -9.79320798e-03, -1.74709745e-02,
       -1.04419850e-02, -3.46054025e-02, 4.17754985e-02, -7.25753140e-03,
       3.89408739e-03, -2.24022614e-03, -2.30174083e-02, -2.47632693e-02,
       -2.65403111e-02, -6.32116757e-03, -1.21375313e-02, 1.48343891e-02,
       -9.01942234e-03, 2.48168269e-03, -1.65351089e-02, 9.49623343e-03,
       5.04827732e-03, -2.39643455e-02, -2.45979205e-02, -3.96844000e-02,
       3.01995762e-02, 1.24348868e-02, 2.23408779e-03, -1.19610243e-02,
       1.66244786e-02, -1.25847254e-02, -1.77336540e-02, -5.32235950e-03,
       -1.26088111e-04, 3.21418606e-02, 7.09985662e-03, 1.63393784e-02,
       -4.03972249e-03, -6.80049823e-04, -1.08685987e-02,
       -2.51146462e-02, -9.79523547e-03, -8.67448840e-03,
       -1.32910060e-02, -1.39195928e-02, -3.03596561e-03,
       -1.59106888e-02, -1.13342935e-03, 7.30728824e-03, 2.66522914e-03,
       -1.87382028e-02, -5.37982956e-02, 3.08672916e-02, 2.18659602e-02,
       -2.16991846e-02, -2.62576807e-02, 8.09024740e-03, -4.59043682e-03,
       -5.85507415e-03, -2.86494871e-03, 1.27889840e-02, -1.37557387e-02,
       -1.91501377e-03, 4.47574211e-03, -2.17651222e-02, 2.82848696e-03,
       1.03817685e-02, -7.65299192e-03, -1.64115503e-02, 1.57942937e-03,
       -4.24438296e-03, 1.82492658e-02, -2.11459817e-03, -3.57435830e-02,
       3.28292348e-03, -7.93984532e-03, 1.58120005e-03, -4.66640592e-02,
       -6.21110350e-02, 9.15101729e-03, 2.40582637e-02, -2.79054604e-02,
       -6.97737979e-03, -9.65212472e-03, -4.01350996e-03, 1.62856223e-03,
       -2.11923830e-02, -4.05401997e-02, -1.46599580e-02, 2.84744147e-03,
       -3.12636420e-02, 4.94954502e-03, 7.13906856e-03, 1.06829060e-02,
       7.15675065e-03, -2.98311319e-02, -1.46339545e-02, 1.32039040e-02,
       2.47398689e-02, -1.82691291e-02, -2.09249817e-02, -7.85461161e-03,
       1.90730114e-02, 2.18001157e-02, 9.08867922e-04, 1.81859005e-02,
       -3.14260554e-03, 1.00485506e-02, -2.98071206e-02, -1.92249455e-02,
       -2.74373442e-02, -8.94075446e-03, -3.92810907e-03, 2.93619256e-03,
       -2.56719086e-02, -6.31145947e-03, 7.92220235e-03, -6.34501595e-03,
       -7.89436884e-03, -1.32020907e-02, -1.73481572e-02,
       -1.58398179e-03, 2.15082653e-02, -2.41999514e-03, -9.65494430e-04,
       8.05025920e-03, -1.99516816e-03, -1.03157675e-02, -1.50826480e-02,
       -9.31262132e-03, 6.02940377e-03, 1.71194263e-02, 1.44731328e-02,
       -1.50333885e-02, 1.05861910e-02, 7.96670094e-04, -6.78915391e-03,
       -1.74893567e-03, -1.23914471e-02, -9.59378108e-03,
       -5.16292546e-03, 9.48501285e-03, -2.04703584e-03, 1.17035313e-02,
       1.47738289e-02, 4.31102887e-03, 1.72744505e-02, -1.16914166e-02,
       -1.13003859e-02, -9.42002423e-03, -5.18234037e-02,
       -1.67050194e-02, 8.57727695e-03, 1.67365000e-02, -5.15870331e-03,
       8.92154220e-03, 8.85514356e-03, 1.05928704e-02, 2.31966190e-02,
       3.13160848e-03, -5.45040425e-03, 1.26393829e-02, 6.24639262e-03,
       -1.58456992e-02, 1.15099959e-02, -3.26248892e-02, -3.61087285e-02,
       -4.13566306e-02, -3.39711569e-02, 1.24007754e-04, 3.20394966e-03,
       1.33398846e-02, -1.74058776e-03, 9.55357403e-03, -3.52215511e-03,
       -1.09823225e-02, -1.08179646e-02, 9.43449792e-03, -7.55525148e-03,
       1.14363069e-02, 2.31991354e-02, -1.85848325e-02, 6.66612585e-04,
       1.40659846e-02, 1.86991673e-02, 2.55743060e-02, 7.81888515e-03,
       3.50015447e-03, 4.42778924e-03, 7.37128034e-03, -3.25801075e-02,
       -5.03323786e-03, 2.24355049e-02, 2.41698865e-02, 1.76004749e-02,
       5.07929875e-03, -7.34005403e-03, 8.25520605e-03, 1.19661503e-02,
       -2.91878954e-02, 5.42816985e-03, 2.36729793e-02, -3.56813846e-03,
       -9.84925590e-03, -1.07130948e-02, -1.40069732e-02, 1.46793304e-02,
       1.16459560e-02, -1.99476182e-02, -8.69435817e-03, 2.32756976e-02,
       2.41748305e-04, -2.22619679e-02, -7.14004505e-03, -6.88707968e-03,
       6.04129583e-03, 7.91038945e-03, -2.12019552e-02, -1.69587228e-02,
       2.52225087e-03, 1.44654168e-02, 6.61246805e-03, -4.77389852e-03,
       -1.15336878e-02, 5.95255475e-03, 6.77621865e-04, -2.38800198e-02,
       -9.83923301e-03, 2.44197715e-02, 2.22117435e-02, -1.32103022e-02,
       1.22881203e-03, -7.56968651e-03, 2.19994076e-02, -7.09505938e-03,
       -9.26302932e-03, -4.55114292e-03, -6.19638304e-04, 5.92754316e-03,
       -2.52973847e-02, -2.02578492e-02, -1.11617781e-02, 1.50533523e-02,
       -4.38429043e-03, -9.70782526e-03, -6.98690023e-03, 1.62370745e-02,
       1.18380720e-02, 1.28026903e-02, 3.88179696e-03, 4.04971279e-03,
       3.02023180e-02, 1.89225432e-02, -5.79391187e-03, -2.60045640e-02,
       8.52329098e-03, -9.11626592e-03, -2.48791557e-02, -2.61432608e-03,
       7.86407571e-03, 1.20664304e-02, -2.05937102e-02, -2.76289247e-02,
       -1.52339274e-02, -8.64759611e-04, -8.48354585e-03,
       -4.11541015e-03, -3.75059946e-03, 1.89136453e-02, 1.03467237e-02,
       -1.04756104e-02, -2.08854973e-02, -2.79042474e-03, 7.85713643e-03,
       -2.93652411e-03, -2.73083290e-03, 1.89460944e-02, -9.16386303e-03,
       1.21458899e-02, 1.82740860e-05, 9.51001886e-03, -8.03606119e-03,
       -1.22526719e-03, -3.19811678e-03, -9.55553632e-03, 5.43817207e-02,
       2.32611671e-02, 1.65553652e-02, -2.46523973e-03, 7.67223537e-04,
       -1.09276697e-02, -1.45531865e-02, -2.19286443e-03,
       -6.43563736e-03, -4.41270694e-02, -1.75776426e-02, 5.68888336e-03,
       -1.66030992e-02, -2.43257657e-02, -4.90865391e-03, 1.22570293e-03,
       1.17580034e-02, 2.03183852e-02, 1.23357950e-02, 7.25475233e-03,
       -4.42134915e-03, -8.01479351e-03, -2.89797760e-03,
       -8.27357359e-03, -2.71292753e-03, 8.64050875e-04, -1.55799035e-02,
       -3.30575014e-04, -2.53308564e-02, -1.18959220e-02,
       -1.69788804e-02, -1.27446977e-02, 1.25714885e-02, 3.04524507e-02,
       1.72679648e-02, 2.37309225e-02, 2.00816225e-02, 8.11767299e-03,
       1.23445811e-02, 1.84112391e-03, 1.79177653e-02, -1.03102131e-02,
       -4.56682453e-03, -1.07678920e-02, 2.13497609e-04, -2.50361860e-02,
       -9.41980816e-03, -4.56497120e-03, -1.29333483e-02,
       -2.18643453e-02, -1.00531541e-02, 5.31430449e-03, 1.28930097e-03,
       2.23158672e-02, -9.11955070e-03, -2.92646252e-02, 1.42493565e-03,
       -6.31294586e-03, -3.09068356e-02, -7.38431746e-03, 1.97740588e-02,
       -7.83299282e-03, -9.88965476e-05, 1.38786490e-04, 1.74619239e-02,
       -6.08188054e-03, -5.74388402e-03, 4.85860539e-04, -1.73460401e-03,
       1.53772030e-02, 6.24560751e-03, -1.09920036e-02, 2.52850205e-02,
       4.42815758e-02, 2.04880424e-02, -4.85236803e-03, 1.84503465e-03,
       -2.84020230e-03, -1.44700427e-03, 3.15960334e-03, 3.84789030e-03,
       -4.08148728e-02, -1.33500379e-02, -8.09408445e-03,
       -1.02168312e-02, -4.07532230e-03, 1.08956720e-03, -1.22269185e-03,
       -4.65269433e-03, -1.20243188e-02, -2.32296828e-02,
       -5.57788135e-03, -2.23053470e-02, -9.81273502e-03, 1.09395785e-02,
       1.06720990e-02, 3.53159499e-03, -4.62917058e-04, -9.10555851e-03,
       2.64512617e-02, 3.86101976e-02, 2.74244044e-02, 8.00781418e-03,
       2.26582382e-02, 3.40363709e-03, -1.28943706e-02, -7.31133390e-03,
       -1.87670272e-02, 3.71417105e-02, 2.16857549e-02, -1.05061941e-03,
       2.48769317e-02, 2.27273554e-02, -1.04534412e-02, -1.90956285e-03,
       -1.42872632e-02, 7.80655956e-03, 1.77580845e-02, -2.82659996e-02,
       -4.08057719e-02, -9.82152298e-03, -8.56847211e-04,
       -8.31449963e-03, 6.91263704e-03, -8.63663107e-03, 1.65455583e-02,
       1.66771747e-02, -8.29014985e-04, -1.33619336e-02, 9.70560685e-03,
       -2.31882054e-02, -1.41029013e-03, -1.72866918e-02,
       -1.69410389e-02, -2.90969620e-03, 5.14247715e-02, -3.01308166e-02,
       -2.58557722e-02, -6.56245789e-03, -5.49299596e-03,
       -7.26164458e-03, -5.68266911e-03, 1.17986286e-02, 4.22286503e-02,
       5.00764549e-02, -1.09830815e-02, -1.51104424e-02, -2.38714553e-02,
       -4.12425958e-02, -7.97793083e-03, 6.64180005e-03, 1.60844019e-03,
       9.05477442e-03, -2.04086006e-02, -3.50267999e-02, 9.31519549e-03,
       -3.53634846e-03, -3.11218649e-02, -2.61702333e-02,
       -1.37932040e-02, 8.99994839e-03, -1.69447456e-02, -3.83662507e-02,
       -4.00348082e-02, 1.81682780e-02, 1.47699295e-02, -2.15472877e-02,
       1.07746827e-03, 4.47966345e-03, 1.64768435e-02, 2.66421903e-02,
       5.58056217e-03, -3.94911692e-02, -4.05619759e-03, -1.42695652e-02,
       -3.37805077e-02, -8.23117327e-03, 3.69459651e-02, 3.68368737e-02,
       1.24531519e-03, -3.17241736e-02, -5.40862838e-03, 9.77182295e-03,
       2.53550652e-02, 5.13540464e-04, -1.71666052e-02, -1.45528540e-02,
       1.11394944e-02, 1.76309850e-02, 1.15747210e-02, 1.05092805e-02,
       1.18611390e-02, 7.17118196e-03, 1.45723799e-03, -1.34080751e-02,
       -8.84080539e-04, -6.11743750e-03, -3.97384027e-03,
       -6.20260127e-02, 6.04641344e-03, -3.20903701e-03, 7.06370035e-03,
       2.28625210e-03, -5.64848213e-03, 3.20170410e-02, 4.57137302e-02,
       3.31138261e-02, 8.22103582e-03, 2.74522789e-02, -9.51725990e-03,
       2.27077547e-02, 1.65292267e-02, 8.22115783e-03, 2.10716538e-02,
       2.28778762e-03, -8.38090014e-03, -4.95737381e-02, 2.27629347e-03,
       -5.17397001e-03, 1.44306654e-02, 1.39166974e-02, 8.41250777e-01 ]
